<?xml version="1.0"?>
<MethodSetup Method="BDT::BDT">
  <GeneralInfo>
    <Info name="TMVA Release" value="4.2.1 [262657]"/>
    <Info name="ROOT Release" value="6.24/04 [399364]"/>
    <Info name="Creator" value="yxiang"/>
    <Info name="Date" value="Tue Mar  1 16:02:23 2022"/>
    <Info name="Host" value="Darwin HMBRW-A-001-M1-002.local 20.5.0 Darwin Kernel Version 20.5.0: Sat May 8 05:10:31 PDT 2021; root:xnu-7195.121.3~9/RELEASE_ARM64_T8101 arm64"/>
    <Info name="Dir" value="/Users/yxiang/Analysis/result/22_02_16/Wjet"/>
    <Info name="Training events" value="607334"/>
    <Info name="TrainingTime" value="1.66373407e+02"/>
    <Info name="AnalysisType" value="Classification"/>
  </GeneralInfo>
  <Options>
    <Option name="V" modified="Yes">False</Option>
    <Option name="VerbosityLevel" modified="No">Default</Option>
    <Option name="VarTransform" modified="No">None</Option>
    <Option name="H" modified="Yes">False</Option>
    <Option name="CreateMVAPdfs" modified="No">False</Option>
    <Option name="IgnoreNegWeightsInTraining" modified="No">False</Option>
    <Option name="NTrees" modified="Yes">800</Option>
    <Option name="MaxDepth" modified="Yes">3</Option>
    <Option name="MinNodeSize" modified="No">5%</Option>
    <Option name="nCuts" modified="Yes">20</Option>
    <Option name="BoostType" modified="Yes">Grad</Option>
    <Option name="AdaBoostR2Loss" modified="No">quadratic</Option>
    <Option name="UseBaggedBoost" modified="No">False</Option>
    <Option name="Shrinkage" modified="No">1.000000e+00</Option>
    <Option name="AdaBoostBeta" modified="No">5.000000e-01</Option>
    <Option name="UseRandomisedTrees" modified="No">False</Option>
    <Option name="UseNvars" modified="No">3</Option>
    <Option name="UsePoissonNvars" modified="No">True</Option>
    <Option name="BaggedSampleFraction" modified="No">6.000000e-01</Option>
    <Option name="UseYesNoLeaf" modified="No">True</Option>
    <Option name="NegWeightTreatment" modified="No">pray</Option>
    <Option name="Css" modified="No">1.000000e+00</Option>
    <Option name="Cts_sb" modified="No">1.000000e+00</Option>
    <Option name="Ctb_ss" modified="No">1.000000e+00</Option>
    <Option name="Cbb" modified="No">1.000000e+00</Option>
    <Option name="NodePurityLimit" modified="Yes">8.000000e-01</Option>
    <Option name="SeparationType" modified="Yes">crossentropy</Option>
    <Option name="RegressionLossFunctionBDTG" modified="No">huber</Option>
    <Option name="HuberQuantile" modified="No">7.000000e-01</Option>
    <Option name="DoBoostMonitor" modified="No">False</Option>
    <Option name="UseFisherCuts" modified="No">False</Option>
    <Option name="MinLinCorrForFisher" modified="No">8.000000e-01</Option>
    <Option name="UseExclusiveVars" modified="No">False</Option>
    <Option name="DoPreselection" modified="No">False</Option>
    <Option name="SigToBkgFraction" modified="No">1.000000e+00</Option>
    <Option name="PruneMethod" modified="No">nopruning</Option>
    <Option name="PruneStrength" modified="No">0.000000e+00</Option>
    <Option name="PruningValFraction" modified="No">5.000000e-01</Option>
    <Option name="SkipNormalization" modified="No">False</Option>
    <Option name="nEventsMin" modified="No">0</Option>
    <Option name="UseBaggedGrad" modified="No">False</Option>
    <Option name="GradBaggingFraction" modified="No">6.000000e-01</Option>
    <Option name="UseNTrainEvents" modified="No">0</Option>
    <Option name="NNodesMax" modified="No">0</Option>
  </Options>
  <Variables NVar="8">
    <Variable VarIndex="0" Expression="Hbbscore" Label="Hbbscore" Title="Hbbscore" Unit="" Internal="Hbbscore" Type="F" Min="2.17551133e-08" Max="9.99511719e-01"/>
    <Variable VarIndex="1" Expression="Hbbmass" Label="Hbbmass" Title="Hbbmass" Unit="" Internal="Hbbmass" Type="F" Min="5.00312500e+01" Max="7.77000000e+02"/>
    <Variable VarIndex="2" Expression="Hbbmsoftdrop" Label="Hbbmsoftdrop" Title="Hbbmsoftdrop" Unit="" Internal="Hbbmsoftdrop" Type="F" Min="4.00312500e+01" Max="7.78500000e+02"/>
    <Variable VarIndex="3" Expression="Hbbtau21" Label="Hbbtau21" Title="Hbbtau21" Unit="" Internal="Hbbtau21" Type="F" Min="2.27779429e-02" Max="9.54945624e-01"/>
    <Variable VarIndex="4" Expression="Hbbtau32" Label="Hbbtau32" Title="Hbbtau32" Unit="" Internal="Hbbtau32" Type="F" Min="1.19210027e-01" Max="1.04780877e+00"/>
    <Variable VarIndex="5" Expression="Hbbtau1" Label="Hbbtau1" Title="Hbbtau1" Unit="" Internal="Hbbtau1" Type="F" Min="2.36816406e-02" Max="6.69921875e-01"/>
    <Variable VarIndex="6" Expression="Hbbtau2" Label="Hbbtau2" Title="Hbbtau2" Unit="" Internal="Hbbtau2" Type="F" Min="3.84521484e-03" Max="4.70703125e-01"/>
    <Variable VarIndex="7" Expression="Hbbtau3" Label="Hbbtau3" Title="Hbbtau3" Unit="" Internal="Hbbtau3" Type="F" Min="2.57301331e-03" Max="2.89062500e-01"/>
  </Variables>
  <Spectators NSpec="0"/>
  <Classes NClass="2">
    <Class Name="Signal" Index="0"/>
    <Class Name="Background" Index="1"/>
  </Classes>
  <Transformations NTransformations="0"/>
  <MVAPdfs/>
  <Weights NTrees="800" AnalysisType="1">
    <BinaryTree type="DecisionTree" boostWeight="1.0000000000000000e+00" itree="0">
      <Node pos="s" depth="0" NCoef="0" IVar="5" Cut="2.6986840367317200e-01" cType="1" res="-7.0103097589077623e-13" rms="5.0000000000000000e-01" purity="5.0000000000000000e-01" nType="0">
        <Node pos="l" depth="1" NCoef="0" IVar="0" Cut="4.2836228013038635e-01" cType="1" res="1.4546191692352295e-01" rms="4.7837311029434204e-01" purity="6.4546191692352295e-01" nType="0">
          <Node pos="l" depth="2" NCoef="0" IVar="0" Cut="1.2234946340322495e-01" cType="1" res="-3.0522683262825012e-01" rms="3.9602598547935486e-01" purity="1.9477316737174988e-01" nType="0">
            <Node pos="l" depth="3" NCoef="0" IVar="-1" Cut="0.0000000000000000e+00" cType="1" res="-8.6953359842300415e-01" rms="2.4693687260150909e-01" purity="6.5233185887336731e-02" nType="-99"/>
            <Node pos="r" depth="3" NCoef="0" IVar="-1" Cut="0.0000000000000000e+00" cType="1" res="-3.6904150247573853e-01" rms="4.6470645070075989e-01" purity="3.1547924876213074e-01" nType="-99"/>
          </Node>
          <Node pos="r" depth="2" NCoef="0" IVar="0" Cut="8.0916339159011841e-01" cType="1" res="2.6954409480094910e-01" rms="4.2112466692924500e-01" purity="7.6954412460327148e-01" nType="0">
            <Node pos="l" depth="3" NCoef="0" IVar="-1" Cut="0.0000000000000000e+00" cType="1" res="2.2607423365116119e-01" rms="4.8705503344535828e-01" purity="6.1303704977035522e-01" nType="-99"/>
            <Node pos="r" depth="3" NCoef="0" IVar="-1" Cut="0.0000000000000000e+00" cType="1" res="6.4301526546478271e-01" rms="3.8292667269706726e-01" purity="8.2150763273239136e-01" nType="-99"/>
          </Node>
        </Node>
        <Node pos="r" depth="1" NCoef="0" IVar="1" Cut="9.2654762268066406e+01" cType="1" res="-3.9877638220787048e-01" rms="3.0162459611892700e-01" purity="1.0122361034154892e-01" nType="0">
          <Node pos="l" depth="2" NCoef="0" IVar="-1" Cut="0.0000000000000000e+00" cType="1" res="-2.3718792200088501e-01" rms="4.8573189973831177e-01" purity="3.8140600919723511e-01" nType="-99"/>
          <Node pos="r" depth="2" NCoef="0" IVar="5" Cut="3.2714843750000000e-01" cType="1" res="-4.7284960746765137e-01" rms="1.6252154111862183e-01" purity="2.7150394394993782e-02" nType="0">
            <Node pos="l" depth="3" NCoef="0" IVar="-1" Cut="0.0000000000000000e+00" cType="1" res="-8.4174752235412598e-01" rms="2.6993569731712341e-01" purity="7.9126238822937012e-02" nType="-99"/>
            <Node pos="r" depth="3" NCoef="0" IVar="-1" Cut="0.0000000000000000e+00" cType="1" res="-9.9460405111312866e-01" rms="5.1871795207262039e-02" purity="2.6979623362421989e-03" nType="-99"/>
          </Node>
        </Node>
      </Node>
    </BinaryTree>
    <BinaryTree type="DecisionTree" boostWeight="1.0000000000000000e+00" itree="1">
      <Node pos="s" depth="0" NCoef="0" IVar="2" Cut="1.1036161041259766e+02" cType="1" res="-1.2675149366259575e-02" rms="3.7611415982246399e-01" purity="5.0000000000000000e-01" nType="0">
        <Node pos="l" depth="1" NCoef="0" IVar="2" Cut="6.3458332061767578e+01" cType="1" res="2.3462094366550446e-02" rms="4.0106007456779480e-01" purity="6.1524295806884766e-01" nType="0">
          <Node pos="l" depth="2" NCoef="0" IVar="0" Cut="4.7595816850662231e-01" cType="1" res="-9.9250994622707367e-02" rms="4.5518863201141357e-01" purity="3.7546452879905701e-01" nType="0">
            <Node pos="l" depth="3" NCoef="0" IVar="-1" Cut="0.0000000000000000e+00" cType="1" res="-8.0792181193828583e-02" rms="3.9558017253875732e-01" purity="2.3715266585350037e-01" nType="-99"/>
            <Node pos="r" depth="3" NCoef="0" IVar="-1" Cut="0.0000000000000000e+00" cType="1" res="-4.3543902039527893e-01" rms="5.0007969141006470e-01" purity="5.2178937196731567e-01" nType="-99"/>
          </Node>
          <Node pos="r" depth="2" NCoef="0" IVar="5" Cut="2.2187732160091400e-01" cType="1" res="4.6716537326574326e-02" rms="3.8557985424995422e-01" purity="6.6068154573440552e-01" nType="0">
            <Node pos="l" depth="3" NCoef="0" IVar="-1" Cut="0.0000000000000000e+00" cType="1" res="2.7280992269515991e-01" rms="3.5775995254516602e-01" purity="7.9392129182815552e-01" nType="-99"/>
            <Node pos="r" depth="3" NCoef="0" IVar="-1" Cut="0.0000000000000000e+00" cType="1" res="-1.2069267779588699e-01" rms="4.1271337866783142e-01" purity="4.3831875920295715e-01" nType="-99"/>
          </Node>
        </Node>
        <Node pos="r" depth="1" NCoef="0" IVar="5" Cut="2.8836351633071899e-01" cType="1" res="-1.5501908957958221e-01" rms="1.9922310113906860e-01" purity="4.6060115098953247e-02" nType="0">
          <Node pos="l" depth="2" NCoef="0" IVar="-1" Cut="0.0000000000000000e+00" cType="1" res="-6.4130932092666626e-01" rms="3.2606571912765503e-01" purity="1.3071948289871216e-01" nType="-99"/>
          <Node pos="r" depth="2" NCoef="0" IVar="7" Cut="1.0058847814798355e-01" cType="1" res="-1.2426885217428207e-01" rms="5.3997643291950226e-02" purity="2.8923647478222847e-03" nType="0">
            <Node pos="l" depth="3" NCoef="0" IVar="-1" Cut="0.0000000000000000e+00" cType="1" res="-5.7535988092422485e-01" rms="1.5564277768135071e-02" purity="0.0000000000000000e+00" nType="-99"/>
            <Node pos="r" depth="3" NCoef="0" IVar="-1" Cut="0.0000000000000000e+00" cType="1" res="-5.3778386116027832e-01" rms="8.3265729248523712e-02" purity="7.3372186161577702e-03" nType="-99"/>
          </Node>
        </Node>
      </Node>
    </BinaryTree>
    <BinaryTree type="DecisionTree" boostWeight="1.0000000000000000e+00" itree="2">
      <Node pos="s" depth="0" NCoef="0" IVar="3" Cut="2.8911155462265015e-01" cType="1" res="-2.4758321233093739e-03" rms="3.6047461628913879e-01" purity="5.0000000000000000e-01" nType="0">
        <Node pos="l" depth="1" NCoef="0" IVar="0" Cut="9.5191591978073120e-01" cType="1" res="-7.9950556159019470e-02" rms="3.2219210267066956e-01" purity="3.4967440366744995e-01" nType="0">
          <Node pos="l" depth="2" NCoef="0" IVar="-1" Cut="0.0000000000000000e+00" cType="1" res="-6.9899976253509521e-01" rms="2.4583652615547180e-01" purity="7.1675240993499756e-02" nType="-99"/>
          <Node pos="r" depth="2" NCoef="0" IVar="-1" Cut="0.0000000000000000e+00" cType="1" res="-8.5026770830154419e-02" rms="3.7555724382400513e-01" purity="6.2763512134552002e-01" nType="-99"/>
        </Node>
        <Node pos="r" depth="1" NCoef="0" IVar="0" Cut="6.1874550580978394e-01" cType="1" res="1.2358881533145905e-02" rms="3.6548143625259399e-01" purity="5.2878409624099731e-01" nType="0">
          <Node pos="l" depth="2" NCoef="0" IVar="3" Cut="4.4764354825019836e-01" cType="1" res="-3.3890958875417709e-02" rms="3.5998257994651794e-01" purity="2.2668538987636566e-01" nType="0">
            <Node pos="l" depth="3" NCoef="0" IVar="-1" Cut="0.0000000000000000e+00" cType="1" res="-4.0769943594932556e-01" rms="2.6876202225685120e-01" purity="1.0902407765388489e-01" nType="-99"/>
            <Node pos="r" depth="3" NCoef="0" IVar="-1" Cut="0.0000000000000000e+00" cType="1" res="-1.3879247941076756e-02" rms="3.9144745469093323e-01" purity="2.8085243701934814e-01" nType="-99"/>
          </Node>
          <Node pos="r" depth="2" NCoef="0" IVar="1" Cut="9.8171127319335938e+01" cType="1" res="3.5940386354923248e-02" rms="3.6601087450981140e-01" purity="6.8281573057174683e-01" nType="0">
            <Node pos="l" depth="3" NCoef="0" IVar="-1" Cut="0.0000000000000000e+00" cType="1" res="2.0335000753402710e-01" rms="3.7160253524780273e-01" purity="7.9198586940765381e-01" nType="-99"/>
            <Node pos="r" depth="3" NCoef="0" IVar="-1" Cut="0.0000000000000000e+00" cType="1" res="-1.8552920222282410e-01" rms="3.3784928917884827e-01" purity="3.9020586013793945e-01" nType="-99"/>
          </Node>
        </Node>
      </Node>
    </BinaryTree>
    <BinaryTree type="DecisionTree" boostWeight="1.0000000000000000e+00" itree="3">
      <Node pos="s" depth="0" NCoef="0" IVar="5" Cut="1.7754836380481720e-01" cType="1" res="-1.1152060469612479e-03" rms="3.5239854454994202e-01" purity="5.0000000000000000e-01" nType="0">
        <Node pos="l" depth="1" NCoef="0" IVar="7" Cut="6.5173104405403137e-02" cType="1" res="2.6729779317975044e-02" rms="3.5554242134094238e-01" purity="6.9309163093566895e-01" nType="0">
          <Node pos="l" depth="2" NCoef="0" IVar="3" Cut="5.0371402502059937e-01" cType="1" res="4.4411860406398773e-02" rms="3.4397554397583008e-01" purity="7.3817747831344604e-01" nType="0">
            <Node pos="l" depth="3" NCoef="0" IVar="-1" Cut="0.0000000000000000e+00" cType="1" res="1.4640197157859802e-01" rms="3.1549137830734253e-01" purity="7.8151124715805054e-01" nType="-99"/>
            <Node pos="r" depth="3" NCoef="0" IVar="-1" Cut="0.0000000000000000e+00" cType="1" res="2.0846560597419739e-01" rms="4.2344510555267334e-01" purity="5.9549117088317871e-01" nType="-99"/>
          </Node>
          <Node pos="r" depth="2" NCoef="0" IVar="-1" Cut="0.0000000000000000e+00" cType="1" res="-1.5218448638916016e-01" rms="3.9290007948875427e-01" purity="4.9661621451377869e-01" nType="-99"/>
        </Node>
        <Node pos="r" depth="1" NCoef="0" IVar="5" Cut="3.1827217340469360e-01" cType="1" res="-1.4721984043717384e-02" rms="3.5004732012748718e-01" purity="4.0564352273941040e-01" nType="0">
          <Node pos="l" depth="2" NCoef="0" IVar="5" Cut="2.7128091454505920e-01" cType="1" res="-3.6025166045874357e-03" rms="3.9740875363349915e-01" purity="5.3603214025497437e-01" nType="0">
            <Node pos="l" depth="3" NCoef="0" IVar="-1" Cut="0.0000000000000000e+00" cType="1" res="-6.5844804048538208e-02" rms="3.9958670735359192e-01" purity="6.0394120216369629e-01" nType="-99"/>
            <Node pos="r" depth="3" NCoef="0" IVar="-1" Cut="0.0000000000000000e+00" cType="1" res="2.6897352933883667e-01" rms="3.8005927205085754e-01" purity="2.4705334007740021e-01" nType="-99"/>
          </Node>
          <Node pos="r" depth="2" NCoef="0" IVar="2" Cut="1.1118154907226562e+02" cType="1" res="-4.7903280705213547e-02" rms="1.2419836223125458e-01" purity="1.6554374247789383e-02" nType="0">
            <Node pos="l" depth="3" NCoef="0" IVar="-1" Cut="0.0000000000000000e+00" cType="1" res="-4.4073033332824707e-01" rms="2.0896890759468079e-01" purity="5.0379343330860138e-02" nType="-99"/>
            <Node pos="r" depth="3" NCoef="0" IVar="-1" Cut="0.0000000000000000e+00" cType="1" res="-5.1605463027954102e-01" rms="1.1585034430027008e-02" purity="0.0000000000000000e+00" nType="-99"/>
          </Node>
        </Node>
      </Node>
    </BinaryTree>
    <BinaryTree type="DecisionTree" boostWeight="1.0000000000000000e+00" itree="4">
      <Node pos="s" depth="0" NCoef="0" IVar="0" Cut="4.7595817595720291e-02" cType="1" res="-2.2261752746999264e-03" rms="3.4897303581237793e-01" purity="5.0000000000000000e-01" nType="0">
        <Node pos="l" depth="1" NCoef="0" IVar="-1" Cut="0.0000000000000000e+00" cType="1" res="-4.9605131149291992e-01" rms="1.2005873769521713e-01" purity="1.1542281135916710e-02" nType="-99"/>
        <Node pos="r" depth="1" NCoef="0" IVar="3" Cut="2.4459134042263031e-01" cType="1" res="2.0705633796751499e-03" rms="3.5980543494224548e-01" purity="5.3614795207977295e-01" nType="0">
          <Node pos="l" depth="2" NCoef="0" IVar="-1" Cut="0.0000000000000000e+00" cType="1" res="-2.1961097419261932e-01" rms="3.0131745338439941e-01" purity="3.2452008128166199e-01" nType="-99"/>
          <Node pos="r" depth="2" NCoef="0" IVar="5" Cut="2.4188232421875000e-01" cType="1" res="6.5140225924551487e-03" rms="3.6432364583015442e-01" purity="5.5535322427749634e-01" nType="0">
            <Node pos="l" depth="3" NCoef="0" IVar="-1" Cut="0.0000000000000000e+00" cType="1" res="5.3020626306533813e-02" rms="3.8476389646530151e-01" purity="7.1350711584091187e-01" nType="-99"/>
            <Node pos="r" depth="3" NCoef="0" IVar="-1" Cut="0.0000000000000000e+00" cType="1" res="-5.2781816571950912e-02" rms="3.1835961341857910e-01" purity="2.3619951307773590e-01" nType="-99"/>
          </Node>
        </Node>
      </Node>
    </BinaryTree>
    <BinaryTree type="DecisionTree" boostWeight="1.0000000000000000e+00" itree="5">
      <Node pos="s" depth="0" NCoef="0" IVar="0" Cut="9.5191591978073120e-01" cType="1" res="-1.0484843514859676e-03" rms="3.4773242473602295e-01" purity="5.0000000000000000e-01" nType="0">
        <Node pos="l" depth="1" NCoef="0" IVar="3" Cut="4.6666732430458069e-01" cType="1" res="-1.1136768385767937e-02" rms="3.4969314932823181e-01" purity="3.8757649064064026e-01" nType="0">
          <Node pos="l" depth="2" NCoef="0" IVar="2" Cut="1.1036161041259766e+02" cType="1" res="-3.1407795846462250e-02" rms="3.0495303869247437e-01" purity="3.3188539743423462e-01" nType="0">
            <Node pos="l" depth="3" NCoef="0" IVar="-1" Cut="0.0000000000000000e+00" cType="1" res="-1.5951073169708252e-01" rms="3.7014383077621460e-01" purity="5.0320345163345337e-01" nType="-99"/>
            <Node pos="r" depth="3" NCoef="0" IVar="-1" Cut="0.0000000000000000e+00" cType="1" res="-2.8070989251136780e-01" rms="1.0319770872592926e-01" purity="1.3663947582244873e-02" nType="-99"/>
          </Node>
          <Node pos="r" depth="2" NCoef="0" IVar="0" Cut="8.1570887565612793e-01" cType="1" res="8.6849620565772057e-03" rms="3.8746660947799683e-01" purity="4.4203323125839233e-01" nType="0">
            <Node pos="l" depth="3" NCoef="0" IVar="-1" Cut="0.0000000000000000e+00" cType="1" res="6.4169026911258698e-02" rms="3.9254844188690186e-01" purity="3.7364542484283447e-01" nType="-99"/>
            <Node pos="r" depth="3" NCoef="0" IVar="-1" Cut="0.0000000000000000e+00" cType="1" res="-9.2208698391914368e-02" rms="3.7048223614692688e-01" purity="6.4065712690353394e-01" nType="-99"/>
          </Node>
        </Node>
        <Node pos="r" depth="1" NCoef="0" IVar="1" Cut="9.2052085876464844e+01" cType="1" res="1.9698230549693108e-02" rms="3.4273302555084229e-01" purity="7.3120075464248657e-01" nType="0">
          <Node pos="l" depth="2" NCoef="0" IVar="-1" Cut="0.0000000000000000e+00" cType="1" res="1.3415773212909698e-01" rms="3.3606350421905518e-01" purity="8.2795578241348267e-01" nType="-99"/>
          <Node pos="r" depth="2" NCoef="0" IVar="-1" Cut="0.0000000000000000e+00" cType="1" res="-5.3471237421035767e-02" rms="3.5376977920532227e-01" purity="5.3564208745956421e-01" nType="-99"/>
        </Node>
      </Node>
    </BinaryTree>
    <BinaryTree type="DecisionTree" boostWeight="1.0000000000000000e+00" itree="6">
      <Node pos="s" depth="0" NCoef="0" IVar="3" Cut="5.9983414411544800e-01" cType="1" res="4.8388101276941597e-04" rms="3.4628912806510925e-01" purity="5.0000000000000000e-01" nType="0">
        <Node pos="l" depth="1" NCoef="0" IVar="3" Cut="2.1512983739376068e-01" cType="1" res="6.2429420650005341e-03" rms="3.3606413006782532e-01" purity="5.1751786470413208e-01" nType="0">
          <Node pos="l" depth="2" NCoef="0" IVar="-1" Cut="0.0000000000000000e+00" cType="1" res="-4.1270697116851807e-01" rms="2.3263737559318542e-01" purity="1.3908173143863678e-01" nType="-99"/>
          <Node pos="r" depth="2" NCoef="0" IVar="1" Cut="8.3363098144531250e+01" cType="1" res="1.0231584310531616e-02" rms="3.4124040603637695e-01" purity="5.4177397489547729e-01" nType="0">
            <Node pos="l" depth="3" NCoef="0" IVar="-1" Cut="0.0000000000000000e+00" cType="1" res="1.0066854208707809e-01" rms="3.7907537817955017e-01" purity="7.0709812641143799e-01" nType="-99"/>
            <Node pos="r" depth="3" NCoef="0" IVar="-1" Cut="0.0000000000000000e+00" cType="1" res="8.1979262176901102e-04" rms="3.1889766454696655e-01" purity="4.5407387614250183e-01" nType="-99"/>
          </Node>
        </Node>
        <Node pos="r" depth="1" NCoef="0" IVar="4" Cut="7.3631674051284790e-01" cType="1" res="-3.8396697491407394e-02" rms="4.0655139088630676e-01" purity="3.8173332810401917e-01" nType="0">
          <Node pos="l" depth="2" NCoef="0" IVar="-1" Cut="0.0000000000000000e+00" cType="1" res="-8.8100498542189598e-03" rms="3.8572248816490173e-01" purity="4.3792444467544556e-01" nType="-99"/>
          <Node pos="r" depth="2" NCoef="0" IVar="-1" Cut="0.0000000000000000e+00" cType="1" res="-2.6333877444267273e-01" rms="4.2729452252388000e-01" purity="3.1029859185218811e-01" nType="-99"/>
        </Node>
      </Node>
    </BinaryTree>
    <BinaryTree type="DecisionTree" boostWeight="1.0000000000000000e+00" itree="7">
      <Node pos="s" depth="0" NCoef="0" IVar="2" Cut="7.5196426391601562e+01" cType="1" res="2.3815327949705534e-05" rms="3.4431079030036926e-01" purity="5.0000000000000000e-01" nType="0">
        <Node pos="l" depth="1" NCoef="0" IVar="0" Cut="6.6634130477905273e-01" cType="1" res="-3.0721342191100121e-02" rms="4.2045825719833374e-01" purity="5.3150427341461182e-01" nType="0">
          <Node pos="l" depth="2" NCoef="0" IVar="0" Cut="2.8543549776077271e-01" cType="1" res="4.5617595314979553e-03" rms="4.1950249671936035e-01" purity="3.3364412188529968e-01" nType="0">
            <Node pos="l" depth="3" NCoef="0" IVar="-1" Cut="0.0000000000000000e+00" cType="1" res="-8.6363315582275391e-02" rms="3.5090163350105286e-01" purity="1.7939332127571106e-01" nType="-99"/>
            <Node pos="r" depth="3" NCoef="0" IVar="-1" Cut="0.0000000000000000e+00" cType="1" res="9.1086536645889282e-02" rms="4.8413085937500000e-01" purity="5.0974118709564209e-01" nType="-99"/>
          </Node>
          <Node pos="r" depth="2" NCoef="0" IVar="-1" Cut="0.0000000000000000e+00" cType="1" res="-2.1095910668373108e-01" rms="4.1888633370399475e-01" purity="7.0307439565658569e-01" nType="-99"/>
        </Node>
        <Node pos="r" depth="1" NCoef="0" IVar="3" Cut="3.7788945436477661e-01" cType="1" res="1.1362841352820396e-02" rms="3.1079763174057007e-01" purity="4.8838099837303162e-01" nType="0">
          <Node pos="l" depth="2" NCoef="0" IVar="1" Cut="9.0392860412597656e+01" cType="1" res="-9.3301432207226753e-03" rms="2.8175088763237000e-01" purity="4.2710155248641968e-01" nType="0">
            <Node pos="l" depth="3" NCoef="0" IVar="-1" Cut="0.0000000000000000e+00" cType="1" res="1.1388064175844193e-01" rms="3.1095087528228760e-01" purity="7.8595536947250366e-01" nType="-99"/>
            <Node pos="r" depth="3" NCoef="0" IVar="-1" Cut="0.0000000000000000e+00" cType="1" res="-2.7991679310798645e-01" rms="2.5717565417289734e-01" purity="1.8362873792648315e-01" nType="-99"/>
          </Node>
          <Node pos="r" depth="2" NCoef="0" IVar="0" Cut="2.8557801246643066e-01" cType="1" res="2.5725089013576508e-02" rms="3.2869079709053040e-01" purity="5.3091287612915039e-01" nType="0">
            <Node pos="l" depth="3" NCoef="0" IVar="-1" Cut="0.0000000000000000e+00" cType="1" res="-1.6477723419666290e-01" rms="2.5817772746086121e-01" purity="9.1177403926849365e-02" nType="-99"/>
            <Node pos="r" depth="3" NCoef="0" IVar="-1" Cut="0.0000000000000000e+00" cType="1" res="1.4626377820968628e-01" rms="3.3930212259292603e-01" purity="6.1254686117172241e-01" nType="-99"/>
          </Node>
        </Node>
      </Node>
    </BinaryTree>
    <BinaryTree type="DecisionTree" boostWeight="1.0000000000000000e+00" itree="8">
      <Node pos="s" depth="0" NCoef="0" IVar="3" Cut="2.8911155462265015e-01" cType="1" res="1.1942912824451923e-03" rms="3.4111621975898743e-01" purity="5.0000000000000000e-01" nType="0">
        <Node pos="l" depth="1" NCoef="0" IVar="0" Cut="7.6153272390365601e-01" cType="1" res="2.9695110395550728e-02" rms="2.8501239418983459e-01" purity="3.4967440366744995e-01" nType="0">
          <Node pos="l" depth="2" NCoef="0" IVar="-1" Cut="0.0000000000000000e+00" cType="1" res="-5.9993112087249756e-01" rms="4.9770366400480270e-02" purity="0.0000000000000000e+00" nType="-99"/>
          <Node pos="r" depth="2" NCoef="0" IVar="-1" Cut="0.0000000000000000e+00" cType="1" res="2.1520639955997467e-01" rms="3.5306918621063232e-01" purity="5.5109012126922607e-01" nType="-99"/>
        </Node>
        <Node pos="r" depth="1" NCoef="0" IVar="4" Cut="5.1718091964721680e-01" cType="1" res="-4.2629917152225971e-03" rms="3.5057273507118225e-01" purity="5.2878409624099731e-01" nType="0">
          <Node pos="l" depth="2" NCoef="0" IVar="-1" Cut="0.0000000000000000e+00" cType="1" res="-2.6465529203414917e-01" rms="2.3950573801994324e-01" purity="1.7818886041641235e-01" nType="-99"/>
          <Node pos="r" depth="2" NCoef="0" IVar="4" Cut="8.2039684057235718e-01" cType="1" res="-1.7852568998932838e-03" rms="3.5745146870613098e-01" purity="5.5530470609664917e-01" nType="0">
            <Node pos="l" depth="3" NCoef="0" IVar="-1" Cut="0.0000000000000000e+00" cType="1" res="2.5559380650520325e-02" rms="3.5395345091819763e-01" purity="5.3865504264831543e-01" nType="-99"/>
            <Node pos="r" depth="3" NCoef="0" IVar="-1" Cut="0.0000000000000000e+00" cType="1" res="-6.5686069428920746e-02" rms="3.6321526765823364e-01" purity="5.8525067567825317e-01" nType="-99"/>
          </Node>
        </Node>
      </Node>
    </BinaryTree>
    <BinaryTree type="DecisionTree" boostWeight="1.0000000000000000e+00" itree="9">
      <Node pos="s" depth="0" NCoef="0" IVar="5" Cut="2.0832170546054840e-01" cType="1" res="-1.0574868065305054e-04" rms="3.3985325694084167e-01" purity="5.0000000000000000e-01" nType="0">
        <Node pos="l" depth="1" NCoef="0" IVar="1" Cut="9.8075889587402344e+01" cType="1" res="7.8572295606136322e-03" rms="3.5905429720878601e-01" purity="6.8742167949676514e-01" nType="0">
          <Node pos="l" depth="2" NCoef="0" IVar="3" Cut="5.1299244165420532e-01" cType="1" res="1.7065549036487937e-03" rms="3.4736710786819458e-01" purity="7.2728586196899414e-01" nType="0">
            <Node pos="l" depth="3" NCoef="0" IVar="-1" Cut="0.0000000000000000e+00" cType="1" res="6.3382424414157867e-02" rms="3.1935730576515198e-01" purity="8.1370127201080322e-01" nType="-99"/>
            <Node pos="r" depth="3" NCoef="0" IVar="-1" Cut="0.0000000000000000e+00" cType="1" res="-9.0367659926414490e-02" rms="4.0714523196220398e-01" purity="5.1315969228744507e-01" nType="-99"/>
          </Node>
          <Node pos="r" depth="2" NCoef="0" IVar="-1" Cut="0.0000000000000000e+00" cType="1" res="1.1194386333227158e-01" rms="3.9901635050773621e-01" purity="5.3789269924163818e-01" nType="-99"/>
        </Node>
        <Node pos="r" depth="1" NCoef="0" IVar="7" Cut="5.8047249913215637e-02" cType="1" res="-7.8487796708941460e-03" rms="3.1988993287086487e-01" purity="3.1775513291358948e-01" nType="0">
          <Node pos="l" depth="2" NCoef="0" IVar="-1" Cut="0.0000000000000000e+00" cType="1" res="-1.7279392480850220e-01" rms="2.9165038466453552e-01" purity="3.0001401901245117e-01" nType="-99"/>
          <Node pos="r" depth="2" NCoef="0" IVar="0" Cut="7.1393710374832153e-01" cType="1" res="-2.9873771127313375e-03" rms="3.2569211721420288e-01" purity="3.2173568010330200e-01" nType="0">
            <Node pos="l" depth="3" NCoef="0" IVar="-1" Cut="0.0000000000000000e+00" cType="1" res="-1.1582639813423157e-01" rms="2.6793465018272400e-01" purity="1.2840752303600311e-01" nType="-99"/>
            <Node pos="r" depth="3" NCoef="0" IVar="-1" Cut="0.0000000000000000e+00" cType="1" res="3.6333460360765457e-02" rms="3.6496725678443909e-01" purity="4.7658935189247131e-01" nType="-99"/>
          </Node>
        </Node>
      </Node>
    </BinaryTree>
    <BinaryTree type="DecisionTree" boostWeight="1.0000000000000000e+00" itree="10">
      <Node pos="s" depth="0" NCoef="0" IVar="3" Cut="5.5544519424438477e-01" cType="1" res="1.4127415488474071e-04" rms="3.3893385529518127e-01" purity="5.0000000000000000e-01" nType="0">
        <Node pos="l" depth="1" NCoef="0" IVar="1" Cut="8.4648811340332031e+01" cType="1" res="-4.1044736281037331e-03" rms="3.2080513238906860e-01" purity="5.2122640609741211e-01" nType="0">
          <Node pos="l" depth="2" NCoef="0" IVar="1" Cut="7.8035713195800781e+01" cType="1" res="1.0997976176440716e-02" rms="3.6340144276618958e-01" purity="7.1903973817825317e-01" nType="0">
            <Node pos="l" depth="3" NCoef="0" IVar="-1" Cut="0.0000000000000000e+00" cType="1" res="8.3207264542579651e-02" rms="3.8292998075485229e-01" purity="6.7483448982238770e-01" nType="-99"/>
            <Node pos="r" depth="3" NCoef="0" IVar="-1" Cut="0.0000000000000000e+00" cType="1" res="-3.6079987883567810e-02" rms="3.3314752578735352e-01" purity="7.8111493587493896e-01" nType="-99"/>
          </Node>
          <Node pos="r" depth="2" NCoef="0" IVar="5" Cut="2.6986840367317200e-01" cType="1" res="-1.2637018226087093e-02" rms="2.9368042945861816e-01" purity="4.0946635603904724e-01" nType="0">
            <Node pos="l" depth="3" NCoef="0" IVar="-1" Cut="0.0000000000000000e+00" cType="1" res="-1.1101721972227097e-01" rms="3.4112575650215149e-01" purity="6.3966917991638184e-01" nType="-99"/>
            <Node pos="r" depth="3" NCoef="0" IVar="-1" Cut="0.0000000000000000e+00" cType="1" res="5.9811696410179138e-02" rms="2.0458692312240601e-01" purity="7.4187919497489929e-02" nType="-99"/>
          </Node>
        </Node>
        <Node pos="r" depth="1" NCoef="0" IVar="0" Cut="4.2836505174636841e-01" cType="1" res="1.6488695517182350e-02" rms="4.0073674917221069e-01" purity="4.1827183961868286e-01" nType="0">
          <Node pos="l" depth="2" NCoef="0" IVar="-1" Cut="0.0000000000000000e+00" cType="1" res="2.5320500135421753e-01" rms="3.8946637511253357e-01" purity="2.2879882156848907e-01" nType="-99"/>
          <Node pos="r" depth="2" NCoef="0" IVar="0" Cut="8.3635604381561279e-01" cType="1" res="-1.2075120583176613e-02" rms="4.0556481480598450e-01" purity="5.4450470209121704e-01" nType="0">
            <Node pos="l" depth="3" NCoef="0" IVar="-1" Cut="0.0000000000000000e+00" cType="1" res="3.1966313719749451e-02" rms="4.1376814246177673e-01" purity="5.2375143766403198e-01" nType="-99"/>
            <Node pos="r" depth="3" NCoef="0" IVar="-1" Cut="0.0000000000000000e+00" cType="1" res="-1.2826015055179596e-01" rms="3.9463305473327637e-01" purity="5.6764745712280273e-01" nType="-99"/>
          </Node>
        </Node>
      </Node>
    </BinaryTree>
    <BinaryTree type="DecisionTree" boostWeight="1.0000000000000000e+00" itree="11">
      <Node pos="s" depth="0" NCoef="0" IVar="0" Cut="7.1393692493438721e-01" cType="1" res="-1.2675479229073972e-04" rms="3.3728462457656860e-01" purity="5.0000000000000000e-01" nType="0">
        <Node pos="l" depth="1" NCoef="0" IVar="4" Cut="8.7098938226699829e-01" cType="1" res="-1.3839721679687500e-02" rms="3.2561692595481873e-01" purity="2.3027761280536652e-01" nType="0">
          <Node pos="l" depth="2" NCoef="0" IVar="2" Cut="1.1036161041259766e+02" cType="1" res="-2.0071787759661674e-02" rms="3.2229879498481750e-01" purity="2.2635060548782349e-01" nType="0">
            <Node pos="l" depth="3" NCoef="0" IVar="-1" Cut="0.0000000000000000e+00" cType="1" res="-1.0683301836252213e-01" rms="3.9574402570724487e-01" purity="3.4825679659843445e-01" nType="-99"/>
            <Node pos="r" depth="3" NCoef="0" IVar="-1" Cut="0.0000000000000000e+00" cType="1" res="2.4578513577580452e-02" rms="1.4203391969203949e-01" purity="3.4585185348987579e-02" nType="-99"/>
          </Node>
          <Node pos="r" depth="2" NCoef="0" IVar="-1" Cut="0.0000000000000000e+00" cType="1" res="7.6852388679981232e-02" rms="3.3971226215362549e-01" purity="2.4944402277469635e-01" nType="-99"/>
        </Node>
        <Node pos="r" depth="1" NCoef="0" IVar="5" Cut="3.0616977810859680e-01" cType="1" res="8.6462497711181641e-03" rms="3.4425556659698486e-01" purity="6.7255753278732300e-01" nType="0">
          <Node pos="l" depth="2" NCoef="0" IVar="1" Cut="8.6409225463867188e+01" cType="1" res="1.2385143898427486e-02" rms="3.6115047335624695e-01" purity="7.7306222915649414e-01" nType="0">
            <Node pos="l" depth="3" NCoef="0" IVar="-1" Cut="0.0000000000000000e+00" cType="1" res="-1.3211172074079514e-02" rms="3.5015565156936646e-01" purity="8.1110411882400513e-01" nType="-99"/>
            <Node pos="r" depth="3" NCoef="0" IVar="-1" Cut="0.0000000000000000e+00" cType="1" res="1.0176004469394684e-01" rms="3.7141138315200806e-01" purity="7.3404234647750854e-01" nType="-99"/>
          </Node>
          <Node pos="r" depth="2" NCoef="0" IVar="-1" Cut="0.0000000000000000e+00" cType="1" res="-1.3517034053802490e-01" rms="2.1400709450244904e-01" purity="6.4387530088424683e-02" nType="-99"/>
        </Node>
      </Node>
    </BinaryTree>
    <BinaryTree type="DecisionTree" boostWeight="1.0000000000000000e+00" itree="12">
      <Node pos="s" depth="0" NCoef="0" IVar="6" Cut="1.8169584870338440e-01" cType="1" res="9.5605144451837987e-05" rms="3.3645981550216675e-01" purity="5.0000000000000000e-01" nType="0">
        <Node pos="l" depth="1" NCoef="0" IVar="3" Cut="5.0995945930480957e-01" cType="1" res="1.6690841875970364e-03" rms="3.4559103846549988e-01" purity="5.3232818841934204e-01" nType="0">
          <Node pos="l" depth="2" NCoef="0" IVar="1" Cut="8.4648811340332031e+01" cType="1" res="-2.4508140049874783e-03" rms="3.1639838218688965e-01" purity="5.3850442171096802e-01" nType="0">
            <Node pos="l" depth="3" NCoef="0" IVar="-1" Cut="0.0000000000000000e+00" cType="1" res="4.1457865387201309e-02" rms="3.5161471366882324e-01" purity="7.3626720905303955e-01" nType="-99"/>
            <Node pos="r" depth="3" NCoef="0" IVar="-1" Cut="0.0000000000000000e+00" cType="1" res="-5.9789050370454788e-02" rms="2.9326745867729187e-01" purity="4.2123794555664062e-01" nType="-99"/>
          </Node>
          <Node pos="r" depth="2" NCoef="0" IVar="1" Cut="7.5791664123535156e+01" cType="1" res="1.2581600807607174e-02" rms="4.1286379098892212e-01" purity="5.1596909761428833e-01" nType="0">
            <Node pos="l" depth="3" NCoef="0" IVar="-1" Cut="0.0000000000000000e+00" cType="1" res="-1.1896029859781265e-01" rms="4.2961803078651428e-01" purity="3.7033510208129883e-01" nType="-99"/>
            <Node pos="r" depth="3" NCoef="0" IVar="-1" Cut="0.0000000000000000e+00" cType="1" res="9.8408401012420654e-02" rms="4.0540349483489990e-01" purity="5.6491512060165405e-01" nType="-99"/>
          </Node>
        </Node>
        <Node pos="r" depth="1" NCoef="0" IVar="-1" Cut="0.0000000000000000e+00" cType="1" res="-2.6545169949531555e-01" rms="1.5827611088752747e-01" purity="4.5134253799915314e-02" nType="-99"/>
      </Node>
    </BinaryTree>
    <BinaryTree type="DecisionTree" boostWeight="1.0000000000000000e+00" itree="13">
      <Node pos="s" depth="0" NCoef="0" IVar="1" Cut="1.1926637268066406e+02" cType="1" res="-4.7297166020143777e-05" rms="3.3538076281547546e-01" purity="5.0000000000000000e-01" nType="0">
        <Node pos="l" depth="1" NCoef="0" IVar="2" Cut="7.8572914123535156e+01" cType="1" res="3.2674260437488556e-03" rms="3.6103785037994385e-01" purity="6.0256123542785645e-01" nType="0">
          <Node pos="l" depth="2" NCoef="0" IVar="4" Cut="8.3879929780960083e-01" cType="1" res="-1.0421633720397949e-02" rms="3.9781802892684937e-01" purity="5.7615792751312256e-01" nType="0">
            <Node pos="l" depth="3" NCoef="0" IVar="-1" Cut="0.0000000000000000e+00" cType="1" res="7.2253458201885223e-03" rms="4.0263444185256958e-01" purity="5.9488290548324585e-01" nType="-99"/>
            <Node pos="r" depth="3" NCoef="0" IVar="-1" Cut="0.0000000000000000e+00" cType="1" res="-1.2577493488788605e-01" rms="3.8714405894279480e-01" purity="5.3987383842468262e-01" nType="-99"/>
          </Node>
          <Node pos="r" depth="2" NCoef="0" IVar="1" Cut="1.0608333587646484e+02" cType="1" res="1.2769591994583607e-02" rms="3.3279696106910706e-01" purity="6.2088894844055176e-01" nType="0">
            <Node pos="l" depth="3" NCoef="0" IVar="-1" Cut="0.0000000000000000e+00" cType="1" res="7.9961590468883514e-02" rms="3.3911174535751343e-01" purity="6.9051313400268555e-01" nType="-99"/>
            <Node pos="r" depth="3" NCoef="0" IVar="-1" Cut="0.0000000000000000e+00" cType="1" res="-1.2410555779933929e-01" rms="2.9339674115180969e-01" purity="2.3709237575531006e-01" nType="-99"/>
          </Node>
        </Node>
        <Node pos="r" depth="1" NCoef="0" IVar="0" Cut="6.6634112596511841e-01" cType="1" res="-1.3233599252998829e-02" rms="2.0293276011943817e-01" purity="9.2000961303710938e-02" nType="0">
          <Node pos="l" depth="2" NCoef="0" IVar="6" Cut="1.1309233307838440e-01" cType="1" res="-3.6970933433622122e-03" rms="1.7736208438873291e-01" purity="5.8969292789697647e-02" nType="0">
            <Node pos="l" depth="3" NCoef="0" IVar="-1" Cut="0.0000000000000000e+00" cType="1" res="1.7657962441444397e-01" rms="2.0651653409004211e-01" purity="9.2809058725833893e-02" nType="-99"/>
            <Node pos="r" depth="3" NCoef="0" IVar="-1" Cut="0.0000000000000000e+00" cType="1" res="-3.3316913247108459e-01" rms="1.3859397172927856e-01" purity="2.3754324764013290e-02" nType="-99"/>
          </Node>
          <Node pos="r" depth="2" NCoef="0" IVar="-1" Cut="0.0000000000000000e+00" cType="1" res="-2.6768529415130615e-01" rms="2.4601568281650543e-01" purity="1.5962900221347809e-01" nType="-99"/>
        </Node>
      </Node>
    </BinaryTree>
    <BinaryTree type="DecisionTree" boostWeight="1.0000000000000000e+00" itree="14">
      <Node pos="s" depth="0" NCoef="0" IVar="2" Cut="7.5196426391601562e+01" cType="1" res="-7.9087614722084254e-05" rms="3.3414337038993835e-01" purity="5.0000000000000000e-01" nType="0">
        <Node pos="l" depth="1" NCoef="0" IVar="1" Cut="6.6505950927734375e+01" cType="1" res="8.5273524746298790e-03" rms="4.0944436192512512e-01" purity="5.3150427341461182e-01" nType="0">
          <Node pos="l" depth="2" NCoef="0" IVar="-1" Cut="0.0000000000000000e+00" cType="1" res="-5.0638593733310699e-02" rms="4.1646471619606018e-01" purity="3.9217397570610046e-01" nType="-99"/>
          <Node pos="r" depth="2" NCoef="0" IVar="2" Cut="6.3468750000000000e+01" cType="1" res="1.6404753550887108e-02" rms="4.0692004561424255e-01" purity="5.7472622394561768e-01" nType="0">
            <Node pos="l" depth="3" NCoef="0" IVar="-1" Cut="0.0000000000000000e+00" cType="1" res="1.4253033697605133e-01" rms="4.2774018645286560e-01" purity="3.9379236102104187e-01" nType="-99"/>
            <Node pos="r" depth="3" NCoef="0" IVar="-1" Cut="0.0000000000000000e+00" cType="1" res="-4.5511727221310139e-03" rms="3.9439719915390015e-01" purity="6.6966134309768677e-01" nType="-99"/>
          </Node>
        </Node>
        <Node pos="r" depth="1" NCoef="0" IVar="2" Cut="1.0873809814453125e+02" cType="1" res="-3.2532021868973970e-03" rms="3.0160209536552429e-01" purity="4.8838099837303162e-01" nType="0">
          <Node pos="l" depth="2" NCoef="0" IVar="0" Cut="9.0432012081146240e-01" cType="1" res="-7.7236425131559372e-03" rms="3.4120365977287292e-01" purity="6.6518831253051758e-01" nType="0">
            <Node pos="l" depth="3" NCoef="0" IVar="-1" Cut="0.0000000000000000e+00" cType="1" res="-8.4247328341007233e-02" rms="3.6962196230888367e-01" purity="5.0674104690551758e-01" nType="-99"/>
            <Node pos="r" depth="3" NCoef="0" IVar="-1" Cut="0.0000000000000000e+00" cType="1" res="7.6781199313700199e-03" rms="3.2050284743309021e-01" purity="7.7095037698745728e-01" nType="-99"/>
          </Node>
          <Node pos="r" depth="2" NCoef="0" IVar="5" Cut="2.5901284813880920e-01" cType="1" res="7.7829984948039055e-03" rms="1.6717973351478577e-01" purity="5.1895823329687119e-02" nType="0">
            <Node pos="l" depth="3" NCoef="0" IVar="-1" Cut="0.0000000000000000e+00" cType="1" res="2.4393476545810699e-01" rms="3.0223613977432251e-01" purity="1.8479679524898529e-01" nType="-99"/>
            <Node pos="r" depth="3" NCoef="0" IVar="-1" Cut="0.0000000000000000e+00" cType="1" res="-2.4700978398323059e-01" rms="7.0926629006862640e-02" purity="4.9831257201731205e-03" nType="-99"/>
          </Node>
        </Node>
      </Node>
    </BinaryTree>
    <BinaryTree type="DecisionTree" boostWeight="1.0000000000000000e+00" itree="15">
      <Node pos="s" depth="0" NCoef="0" IVar="4" Cut="7.8249484300613403e-01" cType="1" res="-3.1626934651285410e-04" rms="3.3321258425712585e-01" purity="5.0000000000000000e-01" nType="0">
        <Node pos="l" depth="1" NCoef="0" IVar="0" Cut="8.5672444105148315e-01" cType="1" res="-5.9241666458547115e-03" rms="3.2471209764480591e-01" purity="4.4852271676063538e-01" nType="0">
          <Node pos="l" depth="2" NCoef="0" IVar="5" Cut="1.7954799532890320e-01" cType="1" res="-1.6976695507764816e-02" rms="3.1631684303283691e-01" purity="2.6188236474990845e-01" nType="0">
            <Node pos="l" depth="3" NCoef="0" IVar="-1" Cut="0.0000000000000000e+00" cType="1" res="-1.8212580680847168e-01" rms="4.0422725677490234e-01" purity="4.6346750855445862e-01" nType="-99"/>
            <Node pos="r" depth="3" NCoef="0" IVar="-1" Cut="0.0000000000000000e+00" cType="1" res="-3.0382659286260605e-02" rms="2.8536215424537659e-01" purity="2.0460657775402069e-01" nType="-99"/>
          </Node>
          <Node pos="r" depth="2" NCoef="0" IVar="4" Cut="5.9320956468582153e-01" cType="1" res="6.3112727366387844e-03" rms="3.3333253860473633e-01" purity="6.5513843297958374e-01" nType="0">
            <Node pos="l" depth="3" NCoef="0" IVar="-1" Cut="0.0000000000000000e+00" cType="1" res="2.1810053288936615e-01" rms="3.2233124971389771e-01" purity="4.5085808634757996e-01" nType="-99"/>
            <Node pos="r" depth="3" NCoef="0" IVar="-1" Cut="0.0000000000000000e+00" cType="1" res="-2.4181354790925980e-02" rms="3.3573055267333984e-01" purity="7.1669465303421021e-01" nType="-99"/>
          </Node>
        </Node>
        <Node pos="r" depth="1" NCoef="0" IVar="0" Cut="8.5672432184219360e-01" cType="1" res="4.8229824751615524e-03" rms="3.4073552489280701e-01" purity="5.4717540740966797e-01" nType="0">
          <Node pos="l" depth="2" NCoef="0" IVar="0" Cut="2.4469867348670959e-01" cType="1" res="1.7989896237850189e-02" rms="3.5033068060874939e-01" purity="3.4121340513229370e-01" nType="0">
            <Node pos="l" depth="3" NCoef="0" IVar="-1" Cut="0.0000000000000000e+00" cType="1" res="-3.5611130297183990e-02" rms="2.4886640906333923e-01" purity="8.3490133285522461e-02" nType="-99"/>
            <Node pos="r" depth="3" NCoef="0" IVar="-1" Cut="0.0000000000000000e+00" cType="1" res="1.0648517310619354e-01" rms="4.0009066462516785e-01" purity="5.0167983770370483e-01" nType="-99"/>
          </Node>
          <Node pos="r" depth="2" NCoef="0" IVar="6" Cut="7.7613830566406250e-02" cType="1" res="-7.7993278391659260e-03" rms="3.3078473806381226e-01" purity="7.4461853504180908e-01" nType="0">
            <Node pos="l" depth="3" NCoef="0" IVar="-1" Cut="0.0000000000000000e+00" cType="1" res="3.8192737847566605e-02" rms="3.0826559662818909e-01" purity="8.1801480054855347e-01" nType="-99"/>
            <Node pos="r" depth="3" NCoef="0" IVar="-1" Cut="0.0000000000000000e+00" cType="1" res="-1.6155621409416199e-01" rms="3.7288984656333923e-01" purity="5.8524787425994873e-01" nType="-99"/>
          </Node>
        </Node>
      </Node>
    </BinaryTree>
    <BinaryTree type="DecisionTree" boostWeight="1.0000000000000000e+00" itree="16">
      <Node pos="s" depth="0" NCoef="0" IVar="7" Cut="4.3500084429979324e-02" cType="1" res="3.8550590397790074e-04" rms="3.3181971311569214e-01" purity="5.0000000000000000e-01" nType="0">
        <Node pos="l" depth="1" NCoef="0" IVar="4" Cut="7.7596169710159302e-01" cType="1" res="-1.3470404781401157e-02" rms="2.9792079329490662e-01" purity="6.3396227359771729e-01" nType="0">
          <Node pos="l" depth="2" NCoef="0" IVar="-1" Cut="0.0000000000000000e+00" cType="1" res="-1.0076626390218735e-01" rms="3.1181383132934570e-01" purity="5.8532571792602539e-01" nType="-99"/>
          <Node pos="r" depth="2" NCoef="0" IVar="-1" Cut="0.0000000000000000e+00" cType="1" res="-5.2507918328046799e-02" rms="2.8852748870849609e-01" purity="6.6535729169845581e-01" nType="-99"/>
        </Node>
        <Node pos="r" depth="1" NCoef="0" IVar="1" Cut="1.1669493865966797e+02" cType="1" res="3.1080080661922693e-03" rms="3.3801433444023132e-01" purity="4.7367820143699646e-01" nType="0">
          <Node pos="l" depth="2" NCoef="0" IVar="2" Cut="8.3327377319335938e+01" cType="1" res="6.1927177011966705e-03" rms="3.6917874217033386e-01" purity="5.8609366416931152e-01" nType="0">
            <Node pos="l" depth="3" NCoef="0" IVar="-1" Cut="0.0000000000000000e+00" cType="1" res="-1.2700377032160759e-02" rms="3.9100325107574463e-01" purity="6.0411387681961060e-01" nType="-99"/>
            <Node pos="r" depth="3" NCoef="0" IVar="-1" Cut="0.0000000000000000e+00" cType="1" res="8.0889135599136353e-02" rms="3.4041973948478699e-01" purity="5.6421458721160889e-01" nType="-99"/>
          </Node>
          <Node pos="r" depth="2" NCoef="0" IVar="5" Cut="2.6684570312500000e-01" cType="1" res="-7.6121152378618717e-03" rms="1.9368508458137512e-01" purity="8.3006799221038818e-02" nType="0">
            <Node pos="l" depth="3" NCoef="0" IVar="-1" Cut="0.0000000000000000e+00" cType="1" res="-1.0213529318571091e-01" rms="3.3760887384414673e-01" purity="2.6599210500717163e-01" nType="-99"/>
            <Node pos="r" depth="3" NCoef="0" IVar="-1" Cut="0.0000000000000000e+00" cType="1" res="-2.8065903112292290e-02" rms="7.1517020463943481e-02" purity="5.9037385508418083e-03" nType="-99"/>
          </Node>
        </Node>
      </Node>
    </BinaryTree>
    <BinaryTree type="DecisionTree" boostWeight="1.0000000000000000e+00" itree="17">
      <Node pos="s" depth="0" NCoef="0" IVar="1" Cut="8.4648811340332031e+01" cType="1" res="1.3947550905868411e-04" rms="3.3144271373748779e-01" purity="5.0000000000000000e-01" nType="0">
        <Node pos="l" depth="1" NCoef="0" IVar="2" Cut="5.7349700927734375e+01" cType="1" res="8.1343203783035278e-03" rms="3.7330281734466553e-01" purity="6.5123397111892700e-01" nType="0">
          <Node pos="l" depth="2" NCoef="0" IVar="-1" Cut="0.0000000000000000e+00" cType="1" res="-7.0103354752063751e-02" rms="4.0561425685882568e-01" purity="3.0241987109184265e-01" nType="-99"/>
          <Node pos="r" depth="2" NCoef="0" IVar="1" Cut="7.4767860412597656e+01" cType="1" res="1.5523144043982029e-02" rms="3.6484611034393311e-01" purity="7.3379582166671753e-01" nType="0">
            <Node pos="l" depth="3" NCoef="0" IVar="-1" Cut="0.0000000000000000e+00" cType="1" res="1.4197023212909698e-01" rms="3.9299276471138000e-01" purity="6.8594354391098022e-01" nType="-99"/>
            <Node pos="r" depth="3" NCoef="0" IVar="-1" Cut="0.0000000000000000e+00" cType="1" res="3.5341019975021482e-04" rms="3.4711754322052002e-01" purity="7.6062279939651489e-01" nType="-99"/>
          </Node>
        </Node>
        <Node pos="r" depth="1" NCoef="0" IVar="3" Cut="5.5544519424438477e-01" cType="1" res="-4.4477889314293861e-03" rms="3.0474531650543213e-01" purity="4.1322532296180725e-01" nType="0">
          <Node pos="l" depth="2" NCoef="0" IVar="3" Cut="3.2715916633605957e-01" cType="1" res="-9.5270536839962006e-03" rms="2.8663510084152222e-01" purity="4.0946635603904724e-01" nType="0">
            <Node pos="l" depth="3" NCoef="0" IVar="-1" Cut="0.0000000000000000e+00" cType="1" res="-1.9730944931507111e-01" rms="2.6201283931732178e-01" purity="2.4660760164260864e-01" nType="-99"/>
            <Node pos="r" depth="3" NCoef="0" IVar="-1" Cut="0.0000000000000000e+00" cType="1" res="-1.5640161931514740e-02" rms="2.9709777235984802e-01" purity="4.8480573296546936e-01" nType="-99"/>
          </Node>
          <Node pos="r" depth="2" NCoef="0" IVar="3" Cut="6.3154077529907227e-01" cType="1" res="1.5654128044843674e-02" rms="3.6708298325538635e-01" purity="4.2810201644897461e-01" nType="0">
            <Node pos="l" depth="3" NCoef="0" IVar="-1" Cut="0.0000000000000000e+00" cType="1" res="-2.4864254519343376e-03" rms="3.6454504728317261e-01" purity="4.2090612649917603e-01" nType="-99"/>
            <Node pos="r" depth="3" NCoef="0" IVar="-1" Cut="0.0000000000000000e+00" cType="1" res="1.3294956088066101e-01" rms="3.6929932236671448e-01" purity="4.3753048777580261e-01" nType="-99"/>
          </Node>
        </Node>
      </Node>
    </BinaryTree>
    <BinaryTree type="DecisionTree" boostWeight="1.0000000000000000e+00" itree="18">
      <Node pos="s" depth="0" NCoef="0" IVar="3" Cut="2.8911155462265015e-01" cType="1" res="2.1774295601062477e-04" rms="3.3014062047004700e-01" purity="5.0000000000000000e-01" nType="0">
        <Node pos="l" depth="1" NCoef="0" IVar="0" Cut="7.6153272390365601e-01" cType="1" res="1.4754534699022770e-02" rms="2.7227920293807983e-01" purity="3.4967440366744995e-01" nType="0">
          <Node pos="l" depth="2" NCoef="0" IVar="-1" Cut="0.0000000000000000e+00" cType="1" res="-5.4753476381301880e-01" rms="1.8932135775685310e-02" purity="0.0000000000000000e+00" nType="-99"/>
          <Node pos="r" depth="2" NCoef="0" IVar="-1" Cut="0.0000000000000000e+00" cType="1" res="1.0860192030668259e-01" rms="3.4102979302406311e-01" purity="5.5109012126922607e-01" nType="-99"/>
        </Node>
        <Node pos="r" depth="1" NCoef="0" IVar="2" Cut="7.3910713195800781e+01" cType="1" res="-2.5657345540821552e-03" rms="3.4002786874771118e-01" purity="5.2878409624099731e-01" nType="0">
          <Node pos="l" depth="2" NCoef="0" IVar="0" Cut="4.2836239933967590e-01" cType="1" res="-1.0651982389390469e-02" rms="4.1325283050537109e-01" purity="5.0120913982391357e-01" nType="0">
            <Node pos="l" depth="3" NCoef="0" IVar="-1" Cut="0.0000000000000000e+00" cType="1" res="5.4935093969106674e-02" rms="3.8591042160987854e-01" purity="2.4527071416378021e-01" nType="-99"/>
            <Node pos="r" depth="3" NCoef="0" IVar="-1" Cut="0.0000000000000000e+00" cType="1" res="-7.6643906533718109e-02" rms="4.2744696140289307e-01" purity="6.4847224950790405e-01" nType="-99"/>
          </Node>
          <Node pos="r" depth="2" NCoef="0" IVar="4" Cut="6.5396863222122192e-01" cType="1" res="4.6367838513106108e-04" rms="3.0809196829795837e-01" purity="5.3911465406417847e-01" nType="0">
            <Node pos="l" depth="3" NCoef="0" IVar="-1" Cut="0.0000000000000000e+00" cType="1" res="-1.0266213119029999e-01" rms="2.7311941981315613e-01" purity="2.8990820050239563e-01" nType="-99"/>
            <Node pos="r" depth="3" NCoef="0" IVar="-1" Cut="0.0000000000000000e+00" cType="1" res="2.6877539232373238e-02" rms="3.1830325722694397e-01" purity="6.1879098415374756e-01" nType="-99"/>
          </Node>
        </Node>
      </Node>
    </BinaryTree>
    <BinaryTree type="DecisionTree" boostWeight="1.0000000000000000e+00" itree="19">
      <Node pos="s" depth="0" NCoef="0" IVar="4" Cut="6.9405686855316162e-01" cType="1" res="4.7605419240426272e-05" rms="3.2977560162544250e-01" purity="5.0000000000000000e-01" nType="0">
        <Node pos="l" depth="1" NCoef="0" IVar="5" Cut="2.1019636094570160e-01" cType="1" res="8.6684217676520348e-03" rms="3.1039649248123169e-01" purity="3.7851279973983765e-01" nType="0">
          <Node pos="l" depth="2" NCoef="0" IVar="-1" Cut="0.0000000000000000e+00" cType="1" res="1.0418653488159180e-01" rms="3.8533923029899597e-01" purity="6.9243836402893066e-01" nType="-99"/>
          <Node pos="r" depth="2" NCoef="0" IVar="7" Cut="8.4109440445899963e-02" cType="1" res="-1.3660172699019313e-03" rms="2.6706290245056152e-01" purity="2.2973787784576416e-01" nType="0">
            <Node pos="l" depth="3" NCoef="0" IVar="-1" Cut="0.0000000000000000e+00" cType="1" res="-9.9391348659992218e-02" rms="2.7005752921104431e-01" purity="2.6902198791503906e-01" nType="-99"/>
            <Node pos="r" depth="3" NCoef="0" IVar="-1" Cut="0.0000000000000000e+00" cType="1" res="8.6022585630416870e-02" rms="2.6327371597290039e-01" purity="1.8969941139221191e-01" nType="-99"/>
          </Node>
        </Node>
        <Node pos="r" depth="1" NCoef="0" IVar="0" Cut="9.5191612839698792e-02" cType="1" res="-2.8196980711072683e-03" rms="3.3592450618743896e-01" purity="5.4040694236755371e-01" nType="0">
          <Node pos="l" depth="2" NCoef="0" IVar="-1" Cut="0.0000000000000000e+00" cType="1" res="-2.3538979887962341e-01" rms="1.5126267075538635e-01" purity="2.6111330837011337e-02" nType="-99"/>
          <Node pos="r" depth="2" NCoef="0" IVar="0" Cut="9.5644998550415039e-01" cType="1" res="-1.0168217122554779e-03" rms="3.5237842798233032e-01" purity="6.0531520843505859e-01" nType="0">
            <Node pos="l" depth="3" NCoef="0" IVar="-1" Cut="0.0000000000000000e+00" cType="1" res="1.4711568132042885e-02" rms="3.7199324369430542e-01" purity="5.1408660411834717e-01" nType="-99"/>
            <Node pos="r" depth="3" NCoef="0" IVar="-1" Cut="0.0000000000000000e+00" cType="1" res="-4.6632561832666397e-02" rms="3.1619080901145935e-01" purity="7.5995534658432007e-01" nType="-99"/>
          </Node>
        </Node>
      </Node>
    </BinaryTree>
    <BinaryTree type="DecisionTree" boostWeight="1.0000000000000000e+00" itree="20">
      <Node pos="s" depth="0" NCoef="0" IVar="0" Cut="9.0432012081146240e-01" cType="1" res="-1.0646307782735676e-04" rms="3.2908636331558228e-01" purity="5.0000000000000000e-01" nType="0">
        <Node pos="l" depth="1" NCoef="0" IVar="1" Cut="8.4648811340332031e+01" cType="1" res="-4.9465559422969818e-03" rms="3.3369836211204529e-01" purity="3.3529070019721985e-01" nType="0">
          <Node pos="l" depth="2" NCoef="0" IVar="3" Cut="4.6434402465820312e-01" cType="1" res="6.8520447239279747e-03" rms="4.0953412652015686e-01" purity="4.9489885568618774e-01" nType="0">
            <Node pos="l" depth="3" NCoef="0" IVar="-1" Cut="0.0000000000000000e+00" cType="1" res="-7.8539215028285980e-02" rms="4.0070679783821106e-01" purity="4.9141919612884521e-01" nType="-99"/>
            <Node pos="r" depth="3" NCoef="0" IVar="-1" Cut="0.0000000000000000e+00" cType="1" res="7.2049841284751892e-02" rms="4.1342380642890930e-01" purity="4.9682858586311340e-01" nType="-99"/>
          </Node>
          <Node pos="r" depth="2" NCoef="0" IVar="2" Cut="1.1036161041259766e+02" cType="1" res="-1.0954431258141994e-02" rms="2.8731018304824829e-01" purity="2.5401785969734192e-01" nType="0">
            <Node pos="l" depth="3" NCoef="0" IVar="-1" Cut="0.0000000000000000e+00" cType="1" res="-8.6980015039443970e-02" rms="3.6746016144752502e-01" purity="4.3586272001266479e-01" nType="-99"/>
            <Node pos="r" depth="3" NCoef="0" IVar="-1" Cut="0.0000000000000000e+00" cType="1" res="7.1113884449005127e-02" rms="1.4187446236610413e-01" purity="3.9003573358058929e-02" nType="-99"/>
          </Node>
        </Node>
        <Node pos="r" depth="1" NCoef="0" IVar="7" Cut="8.3990372717380524e-02" cType="1" res="6.2924199737608433e-03" rms="3.2277658581733704e-01" purity="7.1775519847869873e-01" nType="0">
          <Node pos="l" depth="2" NCoef="0" IVar="7" Cut="6.0772486031055450e-02" cType="1" res="1.0814639739692211e-02" rms="3.1392964720726013e-01" purity="7.7417075634002686e-01" nType="0">
            <Node pos="l" depth="3" NCoef="0" IVar="-1" Cut="0.0000000000000000e+00" cType="1" res="2.3832831531763077e-02" rms="3.0109512805938721e-01" purity="8.1129795312881470e-01" nType="-99"/>
            <Node pos="r" depth="3" NCoef="0" IVar="-1" Cut="0.0000000000000000e+00" cType="1" res="9.3444049358367920e-02" rms="3.3627146482467651e-01" purity="7.0483094453811646e-01" nType="-99"/>
          </Node>
          <Node pos="r" depth="2" NCoef="0" IVar="-1" Cut="0.0000000000000000e+00" cType="1" res="-8.2421809434890747e-02" rms="3.6842769384384155e-01" purity="3.9379867911338806e-01" nType="-99"/>
        </Node>
      </Node>
    </BinaryTree>
    <BinaryTree type="DecisionTree" boostWeight="1.0000000000000000e+00" itree="21">
      <Node pos="s" depth="0" NCoef="0" IVar="0" Cut="5.2355378866195679e-01" cType="1" res="1.6019813483580947e-04" rms="3.2855886220932007e-01" purity="5.0000000000000000e-01" nType="0">
        <Node pos="l" depth="1" NCoef="0" IVar="0" Cut="3.7388393282890320e-01" cType="1" res="-5.5028609931468964e-03" rms="2.9821917414665222e-01" purity="1.6242843866348267e-01" nType="0">
          <Node pos="l" depth="2" NCoef="0" IVar="5" Cut="2.6986840367317200e-01" cType="1" res="2.0053489133715630e-03" rms="2.7713549137115479e-01" purity="1.2446653842926025e-01" nType="0">
            <Node pos="l" depth="3" NCoef="0" IVar="-1" Cut="0.0000000000000000e+00" cType="1" res="4.1701659560203552e-02" rms="3.4095674753189087e-01" purity="1.8804466724395752e-01" nType="-99"/>
            <Node pos="r" depth="3" NCoef="0" IVar="-1" Cut="0.0000000000000000e+00" cType="1" res="-2.9309859871864319e-01" rms="9.6572414040565491e-02" purity="1.6084803268313408e-02" nType="-99"/>
          </Node>
          <Node pos="r" depth="2" NCoef="0" IVar="-1" Cut="0.0000000000000000e+00" cType="1" res="-1.3397285342216492e-01" rms="3.6786928772926331e-01" purity="3.1100559234619141e-01" nType="-99"/>
        </Node>
        <Node pos="r" depth="1" NCoef="0" IVar="0" Cut="9.5421779155731201e-01" cType="1" res="2.5048444513231516e-03" rms="3.4030184149742126e-01" purity="6.3976293802261353e-01" nType="0">
          <Node pos="l" depth="2" NCoef="0" IVar="2" Cut="6.7339286804199219e+01" cType="1" res="7.3788422159850597e-03" rms="3.5607185959815979e-01" purity="5.6594908237457275e-01" nType="0">
            <Node pos="l" depth="3" NCoef="0" IVar="-1" Cut="0.0000000000000000e+00" cType="1" res="8.2769326865673065e-02" rms="4.4769614934921265e-01" purity="5.8003920316696167e-01" nType="-99"/>
            <Node pos="r" depth="3" NCoef="0" IVar="-1" Cut="0.0000000000000000e+00" cType="1" res="1.2226931750774384e-02" rms="3.3623933792114258e-01" purity="5.6334894895553589e-01" nType="-99"/>
          </Node>
          <Node pos="r" depth="2" NCoef="0" IVar="2" Cut="8.2933036804199219e+01" cType="1" res="-3.4697793889790773e-03" rms="3.1981062889099121e-01" purity="7.3024511337280273e-01" nType="0">
            <Node pos="l" depth="3" NCoef="0" IVar="-1" Cut="0.0000000000000000e+00" cType="1" res="-7.8297138214111328e-02" rms="3.2158464193344116e-01" purity="8.2013624906539917e-01" nType="-99"/>
            <Node pos="r" depth="3" NCoef="0" IVar="-1" Cut="0.0000000000000000e+00" cType="1" res="3.6081075668334961e-02" rms="3.1791266798973083e-01" purity="6.5382570028305054e-01" nType="-99"/>
          </Node>
        </Node>
      </Node>
    </BinaryTree>
    <BinaryTree type="DecisionTree" boostWeight="1.0000000000000000e+00" itree="22">
      <Node pos="s" depth="0" NCoef="0" IVar="5" Cut="2.6986840367317200e-01" cType="1" res="-8.6372283476521261e-06" rms="3.2806718349456787e-01" purity="5.0000000000000000e-01" nType="0">
        <Node pos="l" depth="1" NCoef="0" IVar="3" Cut="4.6871373057365417e-01" cType="1" res="-2.2789782378822565e-03" rms="3.5688659548759460e-01" purity="6.4546191692352295e-01" nType="0">
          <Node pos="l" depth="2" NCoef="0" IVar="1" Cut="9.9885414123535156e+01" cType="1" res="3.7909476086497307e-03" rms="3.2730334997177124e-01" purity="7.0113492012023926e-01" nType="0">
            <Node pos="l" depth="3" NCoef="0" IVar="-1" Cut="0.0000000000000000e+00" cType="1" res="3.7240877747535706e-02" rms="3.2890856266021729e-01" purity="7.8598570823669434e-01" nType="-99"/>
            <Node pos="r" depth="3" NCoef="0" IVar="-1" Cut="0.0000000000000000e+00" cType="1" res="-8.8877953588962555e-02" rms="3.1877908110618591e-01" purity="3.0010643601417542e-01" nType="-99"/>
          </Node>
          <Node pos="r" depth="2" NCoef="0" IVar="4" Cut="8.3148807287216187e-01" cType="1" res="-1.0398572310805321e-02" rms="3.9284619688987732e-01" purity="5.7098948955535889e-01" nType="0">
            <Node pos="l" depth="3" NCoef="0" IVar="-1" Cut="0.0000000000000000e+00" cType="1" res="-1.0474611073732376e-02" rms="3.9192914962768555e-01" purity="6.0449546575546265e-01" nType="-99"/>
            <Node pos="r" depth="3" NCoef="0" IVar="-1" Cut="0.0000000000000000e+00" cType="1" res="-1.1584307998418808e-01" rms="3.9490640163421631e-01" purity="4.6125566959381104e-01" nType="-99"/>
          </Node>
        </Node>
        <Node pos="r" depth="1" NCoef="0" IVar="5" Cut="3.0810546875000000e-01" cType="1" res="6.2153860926628113e-03" rms="2.3121227324008942e-01" purity="1.0122361034154892e-01" nType="0">
          <Node pos="l" depth="2" NCoef="0" IVar="-1" Cut="0.0000000000000000e+00" cType="1" res="1.1635478585958481e-01" rms="3.6224395036697388e-01" purity="2.7062729001045227e-01" nType="-99"/>
          <Node pos="r" depth="2" NCoef="0" IVar="4" Cut="6.1207091808319092e-01" cType="1" res="-3.0743426177650690e-03" rms="1.3805179297924042e-01" purity="2.6897909119725227e-02" nType="0">
            <Node pos="l" depth="3" NCoef="0" IVar="-1" Cut="0.0000000000000000e+00" cType="1" res="3.4103307127952576e-01" rms="1.3101403415203094e-01" purity="3.6297321319580078e-02" nType="-99"/>
            <Node pos="r" depth="3" NCoef="0" IVar="-1" Cut="0.0000000000000000e+00" cType="1" res="-2.0797465741634369e-01" rms="1.4083074033260345e-01" purity="2.2377341985702515e-02" nType="-99"/>
          </Node>
        </Node>
      </Node>
    </BinaryTree>
    <BinaryTree type="DecisionTree" boostWeight="1.0000000000000000e+00" itree="23">
      <Node pos="s" depth="0" NCoef="0" IVar="4" Cut="8.7093281745910645e-01" cType="1" res="-1.9894960860256106e-04" rms="3.2735592126846313e-01" purity="5.0000000000000000e-01" nType="0">
        <Node pos="l" depth="1" NCoef="0" IVar="0" Cut="4.7595798969268799e-01" cType="1" res="-2.0224163308739662e-03" rms="3.2331103086471558e-01" purity="4.9519431591033936e-01" nType="0">
          <Node pos="l" depth="2" NCoef="0" IVar="0" Cut="2.7190291881561279e-01" cType="1" res="4.7495961189270020e-03" rms="2.9467272758483887e-01" purity="1.5235278010368347e-01" nType="0">
            <Node pos="l" depth="3" NCoef="0" IVar="-1" Cut="0.0000000000000000e+00" cType="1" res="-5.2567861974239349e-02" rms="2.4252307415008545e-01" purity="8.6298905313014984e-02" nType="-99"/>
            <Node pos="r" depth="3" NCoef="0" IVar="-1" Cut="0.0000000000000000e+00" cType="1" res="1.1170739680528641e-01" rms="3.8318794965744019e-01" purity="2.9587146639823914e-01" nType="-99"/>
          </Node>
          <Node pos="r" depth="2" NCoef="0" IVar="4" Cut="8.3513641357421875e-01" cType="1" res="-4.5415800996124744e-03" rms="3.3330196142196655e-01" purity="6.2273007631301880e-01" nType="0">
            <Node pos="l" depth="3" NCoef="0" IVar="-1" Cut="0.0000000000000000e+00" cType="1" res="-3.1971838325262070e-02" rms="3.3151611685752869e-01" purity="6.0765582323074341e-01" nType="-99"/>
            <Node pos="r" depth="3" NCoef="0" IVar="-1" Cut="0.0000000000000000e+00" cType="1" res="2.9260858893394470e-02" rms="3.4135073423385620e-01" purity="6.9370603561401367e-01" nType="-99"/>
          </Node>
        </Node>
        <Node pos="r" depth="1" NCoef="0" IVar="3" Cut="4.0346071124076843e-01" cType="1" res="8.8380789384245872e-03" rms="3.4656500816345215e-01" purity="5.2381676435470581e-01" nType="0">
          <Node pos="l" depth="2" NCoef="0" IVar="-1" Cut="0.0000000000000000e+00" cType="1" res="-2.9194338247179985e-02" rms="3.1063765287399292e-01" purity="4.9879735708236694e-01" nType="-99"/>
          <Node pos="r" depth="2" NCoef="0" IVar="-1" Cut="0.0000000000000000e+00" cType="1" res="1.0467882454395294e-01" rms="3.9226505160331726e-01" purity="5.6035077571868896e-01" nType="-99"/>
        </Node>
      </Node>
    </BinaryTree>
    <BinaryTree type="DecisionTree" boostWeight="1.0000000000000000e+00" itree="24">
      <Node pos="s" depth="0" NCoef="0" IVar="1" Cut="8.4648811340332031e+01" cType="1" res="2.0188670532661490e-05" rms="3.2701990008354187e-01" purity="5.0000000000000000e-01" nType="0">
        <Node pos="l" depth="1" NCoef="0" IVar="4" Cut="8.5841321945190430e-01" cType="1" res="-3.5770228132605553e-03" rms="3.6863675713539124e-01" purity="6.5123397111892700e-01" nType="0">
          <Node pos="l" depth="2" NCoef="0" IVar="3" Cut="5.1184433698654175e-01" cType="1" res="2.4346364662051201e-03" rms="3.6395299434661865e-01" purity="6.7279213666915894e-01" nType="0">
            <Node pos="l" depth="3" NCoef="0" IVar="-1" Cut="0.0000000000000000e+00" cType="1" res="5.3146224468946457e-02" rms="3.3735853433609009e-01" purity="7.6691865921020508e-01" nType="-99"/>
            <Node pos="r" depth="3" NCoef="0" IVar="-1" Cut="0.0000000000000000e+00" cType="1" res="-5.6650646030902863e-02" rms="4.1474667191505432e-01" purity="4.6976128220558167e-01" nType="-99"/>
          </Node>
          <Node pos="r" depth="2" NCoef="0" IVar="-1" Cut="0.0000000000000000e+00" cType="1" res="-8.7118320167064667e-02" rms="3.8254305720329285e-01" purity="5.8257585763931274e-01" nType="-99"/>
        </Node>
        <Node pos="r" depth="1" NCoef="0" IVar="3" Cut="5.5544519424438477e-01" cType="1" res="2.0841886289417744e-03" rms="3.0053097009658813e-01" purity="4.1322532296180725e-01" nType="0">
          <Node pos="l" depth="2" NCoef="0" IVar="4" Cut="8.5964500904083252e-01" cType="1" res="-1.4213932445272803e-03" rms="2.8179970383644104e-01" purity="4.0946635603904724e-01" nType="0">
            <Node pos="l" depth="3" NCoef="0" IVar="-1" Cut="0.0000000000000000e+00" cType="1" res="-3.9957888424396515e-02" rms="2.7463006973266602e-01" purity="3.8441133499145508e-01" nType="-99"/>
            <Node pos="r" depth="3" NCoef="0" IVar="-1" Cut="0.0000000000000000e+00" cType="1" res="7.7904209494590759e-02" rms="3.0362755060195923e-01" purity="4.9165526032447815e-01" nType="-99"/>
          </Node>
          <Node pos="r" depth="2" NCoef="0" IVar="2" Cut="9.3075889587402344e+01" cType="1" res="1.5958029776811600e-02" rms="3.6503005027770996e-01" purity="4.2810201644897461e-01" nType="0">
            <Node pos="l" depth="3" NCoef="0" IVar="-1" Cut="0.0000000000000000e+00" cType="1" res="1.0447330772876740e-01" rms="4.1210711002349854e-01" purity="5.7895791530609131e-01" nType="-99"/>
            <Node pos="r" depth="3" NCoef="0" IVar="-1" Cut="0.0000000000000000e+00" cType="1" res="-3.6487910896539688e-02" rms="2.9717847704887390e-01" purity="2.4656316637992859e-01" nType="-99"/>
          </Node>
        </Node>
      </Node>
    </BinaryTree>
    <BinaryTree type="DecisionTree" boostWeight="1.0000000000000000e+00" itree="25">
      <Node pos="s" depth="0" NCoef="0" IVar="3" Cut="3.3350050449371338e-01" cType="1" res="1.5794376668054610e-04" rms="3.2647517323493958e-01" purity="5.0000000000000000e-01" nType="0">
        <Node pos="l" depth="1" NCoef="0" IVar="3" Cut="2.5951817631721497e-01" cType="1" res="-4.6816300600767136e-03" rms="2.8119707107543945e-01" purity="4.1397765278816223e-01" nType="0">
          <Node pos="l" depth="2" NCoef="0" IVar="3" Cut="2.1442446112632751e-01" cType="1" res="2.5377620477229357e-03" rms="2.5694882869720459e-01" purity="3.0088296532630920e-01" nType="0">
            <Node pos="l" depth="3" NCoef="0" IVar="-1" Cut="0.0000000000000000e+00" cType="1" res="-1.2213878333568573e-01" rms="2.0620538294315338e-01" purity="1.3708040118217468e-01" nType="-99"/>
            <Node pos="r" depth="3" NCoef="0" IVar="-1" Cut="0.0000000000000000e+00" cType="1" res="9.3283250927925110e-02" rms="2.9272210597991943e-01" purity="4.4053998589515686e-01" nType="-99"/>
          </Node>
          <Node pos="r" depth="2" NCoef="0" IVar="7" Cut="5.9438068419694901e-02" cType="1" res="-1.0589728131890297e-02" rms="2.9945474863052368e-01" purity="5.0653040409088135e-01" nType="0">
            <Node pos="l" depth="3" NCoef="0" IVar="-1" Cut="0.0000000000000000e+00" cType="1" res="-1.5400998294353485e-02" rms="3.1915339827537537e-01" purity="7.0167034864425659e-01" nType="-99"/>
            <Node pos="r" depth="3" NCoef="0" IVar="-1" Cut="0.0000000000000000e+00" cType="1" res="-1.7399910092353821e-01" rms="2.6423454284667969e-01" purity="1.9267174601554871e-01" nType="-99"/>
          </Node>
        </Node>
        <Node pos="r" depth="1" NCoef="0" IVar="3" Cut="6.5902096033096313e-01" cType="1" res="1.7695915885269642e-03" rms="3.4020331501960754e-01" purity="5.2864670753479004e-01" nType="0">
          <Node pos="l" depth="2" NCoef="0" IVar="3" Cut="5.0401109457015991e-01" cType="1" res="3.3501638099551201e-03" rms="3.3808666467666626e-01" purity="5.4314422607421875e-01" nType="0">
            <Node pos="l" depth="3" NCoef="0" IVar="-1" Cut="0.0000000000000000e+00" cType="1" res="-7.5599444098770618e-03" rms="3.1300467252731323e-01" purity="5.8607071638107300e-01" nType="-99"/>
            <Node pos="r" depth="3" NCoef="0" IVar="-1" Cut="0.0000000000000000e+00" cType="1" res="4.3025664985179901e-02" rms="3.7723907828330994e-01" purity="4.6923950314521790e-01" nType="-99"/>
          </Node>
          <Node pos="r" depth="2" NCoef="0" IVar="-1" Cut="0.0000000000000000e+00" cType="1" res="-5.6086003780364990e-02" rms="3.6206939816474915e-01" purity="3.7029895186424255e-01" nType="-99"/>
        </Node>
      </Node>
    </BinaryTree>
    <BinaryTree type="DecisionTree" boostWeight="1.0000000000000000e+00" itree="26">
      <Node pos="s" depth="0" NCoef="0" IVar="0" Cut="5.2355378866195679e-01" cType="1" res="4.5182845497038215e-05" rms="3.2599234580993652e-01" purity="5.0000000000000000e-01" nType="0">
        <Node pos="l" depth="1" NCoef="0" IVar="4" Cut="7.4661076068878174e-01" cType="1" res="-4.6179913915693760e-03" rms="2.9549741744995117e-01" purity="1.6242843866348267e-01" nType="0">
          <Node pos="l" depth="2" NCoef="0" IVar="0" Cut="2.2433081269264221e-01" cType="1" res="-1.6117855906486511e-02" rms="2.7176570892333984e-01" purity="1.3719150424003601e-01" nType="0">
            <Node pos="l" depth="3" NCoef="0" IVar="-1" Cut="0.0000000000000000e+00" cType="1" res="-1.8752789124846458e-02" rms="2.2337999939918518e-01" purity="8.6423709988594055e-02" nType="-99"/>
            <Node pos="r" depth="3" NCoef="0" IVar="-1" Cut="0.0000000000000000e+00" cType="1" res="-1.6181999444961548e-01" rms="3.1890279054641724e-01" purity="1.9726514816284180e-01" nType="-99"/>
          </Node>
          <Node pos="r" depth="2" NCoef="0" IVar="1" Cut="8.3958335876464844e+01" cType="1" res="2.3002584930509329e-03" rms="3.0869081616401672e-01" purity="1.7761082947254181e-01" nType="0">
            <Node pos="l" depth="3" NCoef="0" IVar="-1" Cut="0.0000000000000000e+00" cType="1" res="9.5490097999572754e-02" rms="3.9964926242828369e-01" purity="2.9618704319000244e-01" nType="-99"/>
            <Node pos="r" depth="3" NCoef="0" IVar="-1" Cut="0.0000000000000000e+00" cType="1" res="-1.1294824630022049e-01" rms="2.3275390267372131e-01" purity="1.0306211560964584e-01" nType="-99"/>
          </Node>
        </Node>
        <Node pos="r" depth="1" NCoef="0" IVar="2" Cut="9.4647323608398438e+01" cType="1" res="1.9758520647883415e-03" rms="3.3779430389404297e-01" purity="6.3976293802261353e-01" nType="0">
          <Node pos="l" depth="2" NCoef="0" IVar="7" Cut="9.1631568968296051e-02" cType="1" res="-1.9830986857414246e-03" rms="3.5406109690666199e-01" purity="7.5356400012969971e-01" nType="0">
            <Node pos="l" depth="3" NCoef="0" IVar="-1" Cut="0.0000000000000000e+00" cType="1" res="6.7358082160353661e-03" rms="3.4290647506713867e-01" purity="7.8780901432037354e-01" nType="-99"/>
            <Node pos="r" depth="3" NCoef="0" IVar="-1" Cut="0.0000000000000000e+00" cType="1" res="-8.4595441818237305e-02" rms="4.3115144968032837e-01" purity="4.8301643133163452e-01" nType="-99"/>
          </Node>
          <Node pos="r" depth="2" NCoef="0" IVar="4" Cut="6.5094220638275146e-01" cType="1" res="1.4370340853929520e-02" rms="2.8047820925712585e-01" purity="2.8348025679588318e-01" nType="0">
            <Node pos="l" depth="3" NCoef="0" IVar="-1" Cut="0.0000000000000000e+00" cType="1" res="-1.2562718987464905e-01" rms="2.0350252091884613e-01" purity="1.1473030596971512e-01" nType="-99"/>
            <Node pos="r" depth="3" NCoef="0" IVar="-1" Cut="0.0000000000000000e+00" cType="1" res="1.6361711919307709e-01" rms="3.1530341506004333e-01" purity="3.8047409057617188e-01" nType="-99"/>
          </Node>
        </Node>
      </Node>
    </BinaryTree>
    <BinaryTree type="DecisionTree" boostWeight="1.0000000000000000e+00" itree="27">
      <Node pos="s" depth="0" NCoef="0" IVar="7" Cut="8.4427155554294586e-02" cType="1" res="-4.0247356082545593e-05" rms="3.2533437013626099e-01" purity="5.0000000000000000e-01" nType="0">
        <Node pos="l" depth="1" NCoef="0" IVar="4" Cut="6.5396863222122192e-01" cType="1" res="-3.0058464035391808e-03" rms="3.2435908913612366e-01" purity="5.8119243383407593e-01" nType="0">
          <Node pos="l" depth="2" NCoef="0" IVar="0" Cut="8.0912876129150391e-01" cType="1" res="9.7255734726786613e-03" rms="3.2010892033576965e-01" purity="4.2085528373718262e-01" nType="0">
            <Node pos="l" depth="3" NCoef="0" IVar="-1" Cut="0.0000000000000000e+00" cType="1" res="-1.4051916077733040e-02" rms="2.9818037152290344e-01" purity="1.9883653521537781e-01" nType="-99"/>
            <Node pos="r" depth="3" NCoef="0" IVar="-1" Cut="0.0000000000000000e+00" cType="1" res="8.4736160933971405e-02" rms="3.3563098311424255e-01" purity="5.9077906608581543e-01" nType="-99"/>
          </Node>
          <Node pos="r" depth="2" NCoef="0" IVar="5" Cut="2.1797107160091400e-01" cType="1" res="-5.5040814913809299e-03" rms="3.2512804865837097e-01" purity="6.1265468597412109e-01" nType="0">
            <Node pos="l" depth="3" NCoef="0" IVar="-1" Cut="0.0000000000000000e+00" cType="1" res="-5.0719622522592545e-02" rms="3.3182173967361450e-01" purity="7.1098965406417847e-01" nType="-99"/>
            <Node pos="r" depth="3" NCoef="0" IVar="-1" Cut="0.0000000000000000e+00" cType="1" res="3.7272203713655472e-02" rms="3.0780068039894104e-01" purity="3.7258401513099670e-01" nType="-99"/>
          </Node>
        </Node>
        <Node pos="r" depth="1" NCoef="0" IVar="3" Cut="4.7583463788032532e-01" cType="1" res="7.9732146114110947e-03" rms="3.2782110571861267e-01" purity="2.8060677647590637e-01" nType="0">
          <Node pos="l" depth="2" NCoef="0" IVar="-1" Cut="0.0000000000000000e+00" cType="1" res="-6.6397249698638916e-02" rms="2.2884917259216309e-01" purity="1.5027818083763123e-01" nType="-99"/>
          <Node pos="r" depth="2" NCoef="0" IVar="0" Cut="8.0913645029067993e-01" cType="1" res="1.5990935266017914e-02" rms="3.6803162097930908e-01" purity="3.4724536538124084e-01" nType="0">
            <Node pos="l" depth="3" NCoef="0" IVar="-1" Cut="0.0000000000000000e+00" cType="1" res="1.0239847004413605e-01" rms="3.5898795723915100e-01" purity="3.0572533607482910e-01" nType="-99"/>
            <Node pos="r" depth="3" NCoef="0" IVar="-1" Cut="0.0000000000000000e+00" cType="1" res="-1.7840657383203506e-02" rms="3.8634574413299561e-01" purity="4.3843480944633484e-01" nType="-99"/>
          </Node>
        </Node>
      </Node>
    </BinaryTree>
    <BinaryTree type="DecisionTree" boostWeight="1.0000000000000000e+00" itree="28">
      <Node pos="s" depth="0" NCoef="0" IVar="5" Cut="1.7754836380481720e-01" cType="1" res="9.2692433099728078e-05" rms="3.2484000921249390e-01" purity="5.0000000000000000e-01" nType="0">
        <Node pos="l" depth="1" NCoef="0" IVar="0" Cut="4.2836239933967590e-01" cType="1" res="4.3168561533093452e-03" rms="3.3121865987777710e-01" purity="6.9309163093566895e-01" nType="0">
          <Node pos="l" depth="2" NCoef="0" IVar="-1" Cut="0.0000000000000000e+00" cType="1" res="-3.9000719785690308e-02" rms="3.5432583093643188e-01" purity="2.1926636993885040e-01" nType="-99"/>
          <Node pos="r" depth="2" NCoef="0" IVar="-1" Cut="0.0000000000000000e+00" cType="1" res="3.9264377206563950e-02" rms="3.2390043139457703e-01" purity="8.3415889739990234e-01" nType="-99"/>
        </Node>
        <Node pos="r" depth="1" NCoef="0" IVar="5" Cut="2.0105561614036560e-01" cType="1" res="-1.9714944064617157e-03" rms="3.2165679335594177e-01" purity="4.0564352273941040e-01" nType="0">
          <Node pos="l" depth="2" NCoef="0" IVar="-1" Cut="0.0000000000000000e+00" cType="1" res="3.0846565961837769e-02" rms="3.7217625975608826e-01" purity="6.8638187646865845e-01" nType="-99"/>
          <Node pos="r" depth="2" NCoef="0" IVar="5" Cut="2.2349330782890320e-01" cType="1" res="-4.2698993347585201e-03" rms="3.0828559398651123e-01" purity="3.3840033411979675e-01" nType="0">
            <Node pos="l" depth="3" NCoef="0" IVar="-1" Cut="0.0000000000000000e+00" cType="1" res="-7.7898971736431122e-02" rms="3.6539262533187866e-01" purity="6.4154565334320068e-01" nType="-99"/>
            <Node pos="r" depth="3" NCoef="0" IVar="-1" Cut="0.0000000000000000e+00" cType="1" res="-2.3478146176785231e-03" rms="2.9197844862937927e-01" purity="2.6185235381126404e-01" nType="-99"/>
          </Node>
        </Node>
      </Node>
    </BinaryTree>
    <BinaryTree type="DecisionTree" boostWeight="1.0000000000000000e+00" itree="29">
      <Node pos="s" depth="0" NCoef="0" IVar="3" Cut="6.4422303438186646e-01" cType="1" res="8.8892928033601493e-05" rms="3.2469260692596436e-01" purity="5.0000000000000000e-01" nType="0">
        <Node pos="l" depth="1" NCoef="0" IVar="3" Cut="5.2585232257843018e-01" cType="1" res="-5.7940796250477433e-04" rms="3.2073763012886047e-01" purity="5.1034986972808838e-01" nType="0">
          <Node pos="l" depth="2" NCoef="0" IVar="3" Cut="5.0189405679702759e-01" cType="1" res="1.1157597182318568e-03" rms="3.0529648065567017e-01" purity="5.2687382698059082e-01" nType="0">
            <Node pos="l" depth="3" NCoef="0" IVar="-1" Cut="0.0000000000000000e+00" cType="1" res="-5.1760757341980934e-03" rms="3.0027770996093750e-01" purity="5.2333551645278931e-01" nType="-99"/>
            <Node pos="r" depth="3" NCoef="0" IVar="-1" Cut="0.0000000000000000e+00" cType="1" res="1.0197924822568893e-01" rms="3.5782161355018616e-01" purity="5.6814068555831909e-01" nType="-99"/>
          </Node>
          <Node pos="r" depth="2" NCoef="0" IVar="0" Cut="5.7115173339843750e-01" cType="1" res="-7.3529509827494621e-03" rms="3.7608689069747925e-01" purity="4.4432324171066284e-01" nType="0">
            <Node pos="l" depth="3" NCoef="0" IVar="-1" Cut="0.0000000000000000e+00" cType="1" res="1.2769804336130619e-02" rms="3.7936693429946899e-01" purity="2.9483994841575623e-01" nType="-99"/>
            <Node pos="r" depth="3" NCoef="0" IVar="-1" Cut="0.0000000000000000e+00" cType="1" res="-6.1092570424079895e-02" rms="3.7328073382377625e-01" purity="5.6112235784530640e-01" nType="-99"/>
          </Node>
        </Node>
        <Node pos="r" depth="1" NCoef="0" IVar="-1" Cut="0.0000000000000000e+00" cType="1" res="2.8851861134171486e-02" rms="3.6865770816802979e-01" purity="3.7612435221672058e-01" nType="-99"/>
      </Node>
    </BinaryTree>
    <BinaryTree type="DecisionTree" boostWeight="1.0000000000000000e+00" itree="30">
      <Node pos="s" depth="0" NCoef="0" IVar="0" Cut="8.5672432184219360e-01" cType="1" res="5.4666434152750298e-05" rms="3.2453909516334534e-01" purity="5.0000000000000000e-01" nType="0">
        <Node pos="l" depth="1" NCoef="0" IVar="2" Cut="7.5196426391601562e+01" cType="1" res="-2.9318605083972216e-03" rms="3.2581511139869690e-01" purity="3.0187267065048218e-01" nType="0">
          <Node pos="l" depth="2" NCoef="0" IVar="2" Cut="5.3424106597900391e+01" cType="1" res="-1.1043222621083260e-02" rms="4.0618631243705750e-01" purity="4.0142521262168884e-01" nType="0">
            <Node pos="l" depth="3" NCoef="0" IVar="-1" Cut="0.0000000000000000e+00" cType="1" res="6.9196172058582306e-02" rms="3.8301935791969299e-01" purity="2.9368585348129272e-01" nType="-99"/>
            <Node pos="r" depth="3" NCoef="0" IVar="-1" Cut="0.0000000000000000e+00" cType="1" res="-7.6688982546329498e-02" rms="4.1555607318878174e-01" purity="4.5087537169456482e-01" nType="-99"/>
          </Node>
          <Node pos="r" depth="2" NCoef="0" IVar="3" Cut="5.5544519424438477e-01" cType="1" res="1.0129050351679325e-03" rms="2.7838191390037537e-01" purity="2.5345772504806519e-01" nType="0">
            <Node pos="l" depth="3" NCoef="0" IVar="-1" Cut="0.0000000000000000e+00" cType="1" res="-3.2578639686107635e-02" rms="2.4502435326576233e-01" purity="2.1268007159233093e-01" nType="-99"/>
            <Node pos="r" depth="3" NCoef="0" IVar="-1" Cut="0.0000000000000000e+00" cType="1" res="6.6921815276145935e-02" rms="3.6686506867408752e-01" purity="3.8757842779159546e-01" nType="-99"/>
          </Node>
        </Node>
        <Node pos="r" depth="1" NCoef="0" IVar="6" Cut="1.2961141765117645e-01" cType="1" res="3.1215266790241003e-03" rms="3.2319480180740356e-01" purity="7.0345664024353027e-01" nType="0">
          <Node pos="l" depth="2" NCoef="0" IVar="0" Cut="9.3161737918853760e-01" cType="1" res="1.0924222879111767e-03" rms="3.2323059439659119e-01" purity="7.6451736688613892e-01" nType="0">
            <Node pos="l" depth="3" NCoef="0" IVar="-1" Cut="0.0000000000000000e+00" cType="1" res="5.9926044195890427e-02" rms="3.5666728019714355e-01" purity="7.2580540180206299e-01" nType="-99"/>
            <Node pos="r" depth="3" NCoef="0" IVar="-1" Cut="0.0000000000000000e+00" cType="1" res="-1.3525793328881264e-02" rms="3.1322360038757324e-01" purity="7.7524882555007935e-01" nType="-99"/>
          </Node>
          <Node pos="r" depth="2" NCoef="0" IVar="-1" Cut="0.0000000000000000e+00" cType="1" res="8.5714071989059448e-02" rms="3.2265058159828186e-01" purity="3.0627185106277466e-01" nType="-99"/>
        </Node>
      </Node>
    </BinaryTree>
    <BinaryTree type="DecisionTree" boostWeight="1.0000000000000000e+00" itree="31">
      <Node pos="s" depth="0" NCoef="0" IVar="3" Cut="5.9983414411544800e-01" cType="1" res="3.7016798160038888e-05" rms="3.2403686642646790e-01" purity="5.0000000000000000e-01" nType="0">
        <Node pos="l" depth="1" NCoef="0" IVar="6" Cut="5.6902203708887100e-02" cType="1" res="1.7054375493898988e-03" rms="3.1707885861396790e-01" purity="5.1751786470413208e-01" nType="0">
          <Node pos="l" depth="2" NCoef="0" IVar="3" Cut="2.7006879448890686e-01" cType="1" res="1.0363830253481865e-02" rms="2.9873579740524292e-01" purity="6.5709012746810913e-01" nType="0">
            <Node pos="l" depth="3" NCoef="0" IVar="-1" Cut="0.0000000000000000e+00" cType="1" res="-1.0075501166284084e-02" rms="2.8433257341384888e-01" purity="4.5915740728378296e-01" nType="-99"/>
            <Node pos="r" depth="3" NCoef="0" IVar="-1" Cut="0.0000000000000000e+00" cType="1" res="8.7977670133113861e-02" rms="3.0668520927429199e-01" purity="7.7377974987030029e-01" nType="-99"/>
          </Node>
          <Node pos="r" depth="2" NCoef="0" IVar="3" Cut="5.3052532672882080e-01" cType="1" res="-5.6959741050377488e-04" rms="3.2168650627136230e-01" purity="4.8084455728530884e-01" nType="0">
            <Node pos="l" depth="3" NCoef="0" IVar="-1" Cut="0.0000000000000000e+00" cType="1" res="-1.5968870371580124e-02" rms="3.0729287862777710e-01" purity="4.8146110773086548e-01" nType="-99"/>
            <Node pos="r" depth="3" NCoef="0" IVar="-1" Cut="0.0000000000000000e+00" cType="1" res="3.8126051425933838e-02" rms="3.8149681687355042e-01" purity="4.7797042131423950e-01" nType="-99"/>
          </Node>
        </Node>
        <Node pos="r" depth="1" NCoef="0" IVar="5" Cut="1.8182663619518280e-01" cType="1" res="-1.1226826347410679e-02" rms="3.6738342046737671e-01" purity="3.8173332810401917e-01" nType="0">
          <Node pos="l" depth="2" NCoef="0" IVar="-1" Cut="0.0000000000000000e+00" cType="1" res="-1.1421158909797668e-02" rms="3.5764148831367493e-01" purity="4.1884374618530273e-01" nType="-99"/>
          <Node pos="r" depth="2" NCoef="0" IVar="-1" Cut="0.0000000000000000e+00" cType="1" res="-6.0309197753667831e-02" rms="3.7393561005592346e-01" purity="3.5581412911415100e-01" nType="-99"/>
        </Node>
      </Node>
    </BinaryTree>
    <BinaryTree type="DecisionTree" boostWeight="1.0000000000000000e+00" itree="32">
      <Node pos="s" depth="0" NCoef="0" IVar="6" Cut="7.0539198815822601e-02" cType="1" res="7.7589422289747745e-05" rms="3.2378160953521729e-01" purity="5.0000000000000000e-01" nType="0">
        <Node pos="l" depth="1" NCoef="0" IVar="0" Cut="9.5191591978073120e-01" cType="1" res="-4.9429121427237988e-03" rms="3.0945611000061035e-01" purity="6.4818167686462402e-01" nType="0">
          <Node pos="l" depth="2" NCoef="0" IVar="6" Cut="5.4626464843750000e-02" cType="1" res="-1.3387289829552174e-02" rms="3.2484346628189087e-01" purity="4.6608275175094604e-01" nType="0">
            <Node pos="l" depth="3" NCoef="0" IVar="-1" Cut="0.0000000000000000e+00" cType="1" res="-1.9194814562797546e-01" rms="3.0275669693946838e-01" purity="3.6882597208023071e-01" nType="-99"/>
            <Node pos="r" depth="3" NCoef="0" IVar="-1" Cut="0.0000000000000000e+00" cType="1" res="5.9100729413330555e-03" rms="3.3871173858642578e-01" purity="5.3428560495376587e-01" nType="-99"/>
          </Node>
          <Node pos="r" depth="2" NCoef="0" IVar="-1" Cut="0.0000000000000000e+00" cType="1" res="2.1194562315940857e-02" rms="2.9235452413558960e-01" purity="8.3738207817077637e-01" nType="-99"/>
        </Node>
        <Node pos="r" depth="1" NCoef="0" IVar="4" Cut="7.3827582597732544e-01" cType="1" res="2.5303019210696220e-03" rms="3.3052679896354675e-01" purity="4.2760741710662842e-01" nType="0">
          <Node pos="l" depth="2" NCoef="0" IVar="7" Cut="6.3437685370445251e-02" cType="1" res="-4.0776142850518227e-03" rms="3.0920800566673279e-01" purity="3.7176656723022461e-01" nType="0">
            <Node pos="l" depth="3" NCoef="0" IVar="-1" Cut="0.0000000000000000e+00" cType="1" res="-7.2560913860797882e-02" rms="3.2764869928359985e-01" purity="4.8926824331283569e-01" nType="-99"/>
            <Node pos="r" depth="3" NCoef="0" IVar="-1" Cut="0.0000000000000000e+00" cType="1" res="-9.5279363449662924e-04" rms="3.0179524421691895e-01" purity="3.2700175046920776e-01" nType="-99"/>
          </Node>
          <Node pos="r" depth="2" NCoef="0" IVar="2" Cut="6.7958335876464844e+01" cType="1" res="7.6668877154588699e-03" rms="3.4610587358474731e-01" purity="4.7101461887359619e-01" nType="0">
            <Node pos="l" depth="3" NCoef="0" IVar="-1" Cut="0.0000000000000000e+00" cType="1" res="-7.0986293256282806e-02" rms="3.9663308858871460e-01" purity="3.5233053565025330e-01" nType="-99"/>
            <Node pos="r" depth="3" NCoef="0" IVar="-1" Cut="0.0000000000000000e+00" cType="1" res="7.3308877646923065e-02" rms="3.3108994364738464e-01" purity="5.0219970941543579e-01" nType="-99"/>
          </Node>
        </Node>
      </Node>
    </BinaryTree>
    <BinaryTree type="DecisionTree" boostWeight="1.0000000000000000e+00" itree="33">
      <Node pos="s" depth="0" NCoef="0" IVar="2" Cut="7.5196426391601562e+01" cType="1" res="1.5722452371846884e-04" rms="3.2329246401786804e-01" purity="5.0000000000000000e-01" nType="0">
        <Node pos="l" depth="1" NCoef="0" IVar="4" Cut="7.5519549846649170e-01" cType="1" res="1.1463930830359459e-02" rms="3.9267894625663757e-01" purity="5.3150427341461182e-01" nType="0">
          <Node pos="l" depth="2" NCoef="0" IVar="-1" Cut="0.0000000000000000e+00" cType="1" res="7.5921244919300079e-02" rms="4.0948000550270081e-01" purity="5.6661283969879150e-01" nType="-99"/>
          <Node pos="r" depth="2" NCoef="0" IVar="1" Cut="7.6123512268066406e+01" cType="1" res="4.9065663479268551e-03" rms="3.8478025794029236e-01" purity="5.1587045192718506e-01" nType="0">
            <Node pos="l" depth="3" NCoef="0" IVar="-1" Cut="0.0000000000000000e+00" cType="1" res="5.3177829831838608e-02" rms="3.8411858677864075e-01" purity="5.4573088884353638e-01" nType="-99"/>
            <Node pos="r" depth="3" NCoef="0" IVar="-1" Cut="0.0000000000000000e+00" cType="1" res="-6.5051421523094177e-02" rms="3.8522776961326599e-01" purity="4.4191589951515198e-01" nType="-99"/>
          </Node>
        </Node>
        <Node pos="r" depth="1" NCoef="0" IVar="3" Cut="5.1105624437332153e-01" cType="1" res="-4.0127667598426342e-03" rms="2.9348188638687134e-01" purity="4.8838099837303162e-01" nType="0">
          <Node pos="l" depth="2" NCoef="0" IVar="3" Cut="3.9479920268058777e-01" cType="1" res="-1.5732544125057757e-04" rms="2.7779263257980347e-01" purity="4.9747323989868164e-01" nType="0">
            <Node pos="l" depth="3" NCoef="0" IVar="-1" Cut="0.0000000000000000e+00" cType="1" res="-5.4053511470556259e-02" rms="2.6742285490036011e-01" purity="4.4294399023056030e-01" nType="-99"/>
            <Node pos="r" depth="3" NCoef="0" IVar="-1" Cut="0.0000000000000000e+00" cType="1" res="6.5359652042388916e-02" rms="2.9234138131141663e-01" purity="5.7946151494979858e-01" nType="-99"/>
          </Node>
          <Node pos="r" depth="2" NCoef="0" IVar="6" Cut="1.5024675428867340e-01" cType="1" res="-1.6190299764275551e-02" rms="3.3800283074378967e-01" purity="4.5966285467147827e-01" nType="0">
            <Node pos="l" depth="3" NCoef="0" IVar="-1" Cut="0.0000000000000000e+00" cType="1" res="-1.1729800701141357e-01" rms="3.7917605042457581e-01" purity="6.4556759595870972e-01" nType="-99"/>
            <Node pos="r" depth="3" NCoef="0" IVar="-1" Cut="0.0000000000000000e+00" cType="1" res="1.7743289470672607e-02" rms="2.7042597532272339e-01" purity="2.0474059879779816e-01" nType="-99"/>
          </Node>
        </Node>
      </Node>
    </BinaryTree>
    <BinaryTree type="DecisionTree" boostWeight="1.0000000000000000e+00" itree="34">
      <Node pos="s" depth="0" NCoef="0" IVar="7" Cut="4.3500084429979324e-02" cType="1" res="2.1979583834763616e-04" rms="3.2270526885986328e-01" purity="5.0000000000000000e-01" nType="0">
        <Node pos="l" depth="1" NCoef="0" IVar="4" Cut="7.7596169710159302e-01" cType="1" res="8.3774402737617493e-03" rms="2.8871577978134155e-01" purity="6.3396227359771729e-01" nType="0">
          <Node pos="l" depth="2" NCoef="0" IVar="-1" Cut="0.0000000000000000e+00" cType="1" res="8.3256373181939125e-03" rms="3.0051162838935852e-01" purity="5.8532571792602539e-01" nType="-99"/>
          <Node pos="r" depth="2" NCoef="0" IVar="-1" Cut="0.0000000000000000e+00" cType="1" res="6.9636359810829163e-02" rms="2.8075098991394043e-01" purity="6.6535729169845581e-01" nType="-99"/>
        </Node>
        <Node pos="r" depth="1" NCoef="0" IVar="3" Cut="5.8799010515213013e-01" cType="1" res="-1.3830728130415082e-03" rms="3.2894742488861084e-01" purity="4.7367820143699646e-01" nType="0">
          <Node pos="l" depth="2" NCoef="0" IVar="3" Cut="4.2489841580390930e-01" cType="1" res="-3.5747908987104893e-03" rms="3.1848061084747314e-01" purity="4.8997116088867188e-01" nType="0">
            <Node pos="l" depth="3" NCoef="0" IVar="-1" Cut="0.0000000000000000e+00" cType="1" res="1.3526141643524170e-02" rms="2.9586401581764221e-01" purity="4.5387667417526245e-01" nType="-99"/>
            <Node pos="r" depth="3" NCoef="0" IVar="-1" Cut="0.0000000000000000e+00" cType="1" res="-4.2684126645326614e-02" rms="3.4040734171867371e-01" purity="5.2768903970718384e-01" nType="-99"/>
          </Node>
          <Node pos="r" depth="2" NCoef="0" IVar="1" Cut="1.0155208587646484e+02" cType="1" res="9.0603949502110481e-03" rms="3.7465232610702515e-01" purity="3.9604285359382629e-01" nType="0">
            <Node pos="l" depth="3" NCoef="0" IVar="-1" Cut="0.0000000000000000e+00" cType="1" res="-3.9204480126500130e-03" rms="4.0153524279594421e-01" purity="4.2672353982925415e-01" nType="-99"/>
            <Node pos="r" depth="3" NCoef="0" IVar="-1" Cut="0.0000000000000000e+00" cType="1" res="1.2284626066684723e-01" rms="3.1996339559555054e-01" purity="3.4097006916999817e-01" nType="-99"/>
          </Node>
        </Node>
      </Node>
    </BinaryTree>
    <BinaryTree type="DecisionTree" boostWeight="1.0000000000000000e+00" itree="35">
      <Node pos="s" depth="0" NCoef="0" IVar="5" Cut="2.3909504711627960e-01" cType="1" res="6.8995526817161590e-05" rms="3.2259225845336914e-01" purity="5.0000000000000000e-01" nType="0">
        <Node pos="l" depth="1" NCoef="0" IVar="0" Cut="8.0912858247756958e-01" cType="1" res="2.2940507624298334e-03" rms="3.4827908873558044e-01" purity="6.7024683952331543e-01" nType="0">
          <Node pos="l" depth="2" NCoef="0" IVar="3" Cut="6.0224092006683350e-01" cType="1" res="1.0732508264482021e-02" rms="3.8743171095848083e-01" purity="4.1767966747283936e-01" nType="0">
            <Node pos="l" depth="3" NCoef="0" IVar="-1" Cut="0.0000000000000000e+00" cType="1" res="6.6591724753379822e-02" rms="3.8863536715507507e-01" purity="4.4149705767631531e-01" nType="-99"/>
            <Node pos="r" depth="3" NCoef="0" IVar="-1" Cut="0.0000000000000000e+00" cType="1" res="-4.9953445792198181e-02" rms="3.8262227177619934e-01" purity="3.4561255574226379e-01" nType="-99"/>
          </Node>
          <Node pos="r" depth="2" NCoef="0" IVar="4" Cut="7.9145491123199463e-01" cType="1" res="-3.5602555144578218e-03" rms="3.1816780567169189e-01" purity="8.4546917676925659e-01" nType="0">
            <Node pos="l" depth="3" NCoef="0" IVar="-1" Cut="0.0000000000000000e+00" cType="1" res="1.5215863473713398e-02" rms="3.2864239811897278e-01" purity="8.4151649475097656e-01" nType="-99"/>
            <Node pos="r" depth="3" NCoef="0" IVar="-1" Cut="0.0000000000000000e+00" cType="1" res="-4.7024670988321304e-02" rms="3.0956164002418518e-01" purity="8.4858310222625732e-01" nType="-99"/>
          </Node>
        </Node>
        <Node pos="r" depth="1" NCoef="0" IVar="5" Cut="2.5964936614036560e-01" cType="1" res="-3.7292765919119120e-03" rms="2.7317780256271362e-01" purity="2.0938070118427277e-01" nType="0">
          <Node pos="l" depth="2" NCoef="0" IVar="-1" Cut="0.0000000000000000e+00" cType="1" res="4.5392692089080811e-02" rms="3.8064444065093994e-01" purity="5.2630823850631714e-01" nType="-99"/>
          <Node pos="r" depth="2" NCoef="0" IVar="1" Cut="9.0690475463867188e+01" cType="1" res="-8.0434419214725494e-03" rms="2.3863428831100464e-01" purity="1.3005498051643372e-01" nType="0">
            <Node pos="l" depth="3" NCoef="0" IVar="-1" Cut="0.0000000000000000e+00" cType="1" res="-1.0506163537502289e-01" rms="4.0236300230026245e-01" purity="4.2609152197837830e-01" nType="-99"/>
            <Node pos="r" depth="3" NCoef="0" IVar="-1" Cut="0.0000000000000000e+00" cType="1" res="-1.6541561111807823e-02" rms="1.7162345349788666e-01" purity="5.3188268095254898e-02" nType="-99"/>
          </Node>
        </Node>
      </Node>
    </BinaryTree>
    <BinaryTree type="DecisionTree" boostWeight="1.0000000000000000e+00" itree="36">
      <Node pos="s" depth="0" NCoef="0" IVar="0" Cut="9.0432012081146240e-01" cType="1" res="7.2850161814130843e-05" rms="3.2208204269409180e-01" purity="5.0000000000000000e-01" nType="0">
        <Node pos="l" depth="1" NCoef="0" IVar="6" Cut="7.0539198815822601e-02" cType="1" res="-2.7272074948996305e-03" rms="3.2554095983505249e-01" purity="3.3529070019721985e-01" nType="0">
          <Node pos="l" depth="2" NCoef="0" IVar="5" Cut="1.4139230549335480e-01" cType="1" res="-1.5095409937202930e-02" rms="3.2284086942672729e-01" purity="3.7905785441398621e-01" nType="0">
            <Node pos="l" depth="3" NCoef="0" IVar="-1" Cut="0.0000000000000000e+00" cType="1" res="-9.3769527971744537e-02" rms="3.6226925253868103e-01" purity="5.0995469093322754e-01" nType="-99"/>
            <Node pos="r" depth="3" NCoef="0" IVar="-1" Cut="0.0000000000000000e+00" cType="1" res="-4.6827308833599091e-02" rms="2.8668522834777832e-01" purity="2.7303612232208252e-01" nType="-99"/>
          </Node>
          <Node pos="r" depth="2" NCoef="0" IVar="5" Cut="1.6544015705585480e-01" cType="1" res="1.0515836765989661e-03" rms="3.2626795768737793e-01" purity="3.2191872596740723e-01" nType="0">
            <Node pos="l" depth="3" NCoef="0" IVar="-1" Cut="0.0000000000000000e+00" cType="1" res="8.9728437364101410e-02" rms="3.8397392630577087e-01" purity="5.1310431957244873e-01" nType="-99"/>
            <Node pos="r" depth="3" NCoef="0" IVar="-1" Cut="0.0000000000000000e+00" cType="1" res="-1.6481349244713783e-02" rms="3.1524789333343506e-01" purity="2.8954249620437622e-01" nType="-99"/>
          </Node>
        </Node>
        <Node pos="r" depth="1" NCoef="0" IVar="6" Cut="1.2961141765117645e-01" cType="1" res="3.7746883463114500e-03" rms="3.1741338968276978e-01" purity="7.1775519847869873e-01" nType="0">
          <Node pos="l" depth="2" NCoef="0" IVar="6" Cut="6.4340136945247650e-02" cType="1" res="1.9033817807212472e-03" rms="3.1543919444084167e-01" purity="7.7280610799789429e-01" nType="0">
            <Node pos="l" depth="3" NCoef="0" IVar="-1" Cut="0.0000000000000000e+00" cType="1" res="4.7785602509975433e-02" rms="2.8954786062240601e-01" purity="8.4061372280120850e-01" nType="-99"/>
            <Node pos="r" depth="3" NCoef="0" IVar="-1" Cut="0.0000000000000000e+00" cType="1" res="-1.4312695711851120e-02" rms="3.3349370956420898e-01" purity="7.2182935476303101e-01" nType="-99"/>
          </Node>
          <Node pos="r" depth="2" NCoef="0" IVar="-1" Cut="0.0000000000000000e+00" cType="1" res="8.8841065764427185e-02" rms="3.3094042539596558e-01" purity="3.2223778963088989e-01" nType="-99"/>
        </Node>
      </Node>
    </BinaryTree>
    <BinaryTree type="DecisionTree" boostWeight="1.0000000000000000e+00" itree="37">
      <Node pos="s" depth="0" NCoef="0" IVar="5" Cut="2.6986840367317200e-01" cType="1" res="7.6538126450031996e-05" rms="3.2183945178985596e-01" purity="5.0000000000000000e-01" nType="0">
        <Node pos="l" depth="1" NCoef="0" IVar="5" Cut="2.4633789062500000e-01" cType="1" res="-1.2605263618752360e-03" rms="3.5134792327880859e-01" purity="6.4546191692352295e-01" nType="0">
          <Node pos="l" depth="2" NCoef="0" IVar="5" Cut="2.1442522108554840e-01" cType="1" res="1.3982042437419295e-03" rms="3.4921601414680481e-01" purity="6.6557192802429199e-01" nType="0">
            <Node pos="l" depth="3" NCoef="0" IVar="-1" Cut="0.0000000000000000e+00" cType="1" res="-8.7480712682008743e-03" rms="3.4398427605628967e-01" purity="6.8401682376861572e-01" nType="-99"/>
            <Node pos="r" depth="3" NCoef="0" IVar="-1" Cut="0.0000000000000000e+00" cType="1" res="4.9257785081863403e-02" rms="3.6812409758567810e-01" purity="5.9552520513534546e-01" nType="-99"/>
          </Node>
          <Node pos="r" depth="2" NCoef="0" IVar="-1" Cut="0.0000000000000000e+00" cType="1" res="-8.7412998080253601e-02" rms="3.6898142099380493e-01" purity="4.6600672602653503e-01" nType="-99"/>
        </Node>
        <Node pos="r" depth="1" NCoef="0" IVar="0" Cut="7.6153272390365601e-01" cType="1" res="3.7420317530632019e-03" rms="2.2159454226493835e-01" purity="1.0122361034154892e-01" nType="0">
          <Node pos="l" depth="2" NCoef="0" IVar="3" Cut="3.6233633756637573e-01" cType="1" res="-6.3829086720943451e-03" rms="1.3444662094116211e-01" purity="3.2645829021930695e-02" nType="0">
